730 32
0 0.44525474 -0.078429475 0.6707558 2.3334017 0.77315646 -1.6332313 0.63134646 0.6541345 1.6704296 1.2853574 -0.74042463 2.7657871 1.6501414 0.17593339 -0.978256 -1.0643361 2.6512325 0.5019034 0.11558183 1.6803857 1.2732973 1.8249639 -3.5790474 1.5884218 3.0210648 4.224912 -1.682549 -1.031234 -5.0563645 3.4946456 -2.6454675 -1.4301258
1 0.51713556 -0.132501 0.748961 2.1627352 0.738433 -1.5849547 0.7084986 0.6678333 1.5671167 1.305416 -0.61367077 2.7572517 1.6620466 0.23749821 -1.0369021 -0.8920155 2.5824466 0.5769159 0.13724719 1.6802313 1.2675229 1.7648985 -3.5617404 1.4265983 2.948329 4.2192035 -1.5761172 -1.0543582 -5.0816154 3.614999 -2.6230223 -1.3914796
2 -0.023590535 -0.008619866 -0.019873913 -0.013459041 0.0077613187 0.1700346 0.05554711 0.09785252 0.013309675 0.0052908715 0.22514874 0.16803187 0.017688408 -0.020724775 -0.0339378 -0.002173974 0.066784665 -0.11559408 0.13664807 0.00534385 -0.20686466 -0.094687246 0.07072584 0.19581145 0.14485238 0.09998011 0.13845535 0.008127851 -0.059908316 -0.0137798535 -0.1167707 -0.13684914
3 -0.01782693 -0.0053926827 -0.023908129 -0.018162526 0.0042171585 0.12596588 0.069956265 0.07924413 0.022587206 -0.019899597 0.16468646 0.12498415 -0.0061635287 0.007980589 -0.0063162446 -0.0045980215 0.039043717 -0.085072465 0.1125779 -0.00713772 -0.14238618 -0.054442834 0.04222912 0.16319342 0.11893106 0.07088388 0.11176901 -0.0063559515 -0.045270886 -0.022577262 -0.11302596 -0.11267771
4 -0.041631903 0.0010151496 -0.059913855 -0.052466195 -0.014326788 0.17658187 0.08188287 0.12872036 0.037742592 0.012704492 0.23491655 0.16730012 0.024465514 -0.055769134 -0.044958964 -0.030461678 0.06027433 -0.13648693 0.16703402 -0.0054154308 -0.1894729 -0.11013715 0.08883298 0.25111818 0.15789708 0.09340836 0.13874058 -0.02092244 -0.08116502 -0.010976521 -0.13410245 -0.16139674
5 -0.025214711 -0.016771477 -0.033701338 -0.036163054 -0.015812522 0.16357337 0.07632647 0.09836217 0.024507005 -0.017079553 0.19670288 0.13804895 0.019644024 -0.037835326 -0.03673002 -0.016443362 0.044141173 -0.09207449 0.13460772 -0.014053497 -0.15485117 -0.10560835 0.079349995 0.17972714 0.10790405 0.06729603 0.12008167 -0.008034162 -0.078727365 -0.0051265354 -0.100215785 -0.12955849
6 -0.015848778 -0.0012201816 0.018887497 0.007307714 0.015466548 0.14359759 0.055044945 0.10704672 0.061878435 0.0023502551 0.17805548 0.15410632 0.003243295 0.029869596 -0.01796854 -0.0072823176 0.06276956 -0.09356905 0.10716513 0.015359643 -0.17392014 -0.027027901 -0.023752507 0.18519954 0.16145557 0.10980439 0.10258409 0.017791446 -0.10913907 0.016476972 -0.15261683 -0.16417284
7 -0.031329416 0.016575765 -0.019526867 -0.015331425 0.019909011 0.19020973 0.09215541 0.117665276 0.04510102 -0.012252482 0.24759899 0.1664507 0.010987278 -0.03192429 -0.033053596 -0.018812919 0.07782867 -0.13432203 0.15805975 -0.012523437 -0.22173028 -0.0919632 0.0661078 0.22753406 0.15076795 0.11507269 0.14527623 -0.017745888 -0.06434013 -0.015070246 -0.13420396 -0.16452387
8 -0.024227642 0.00615842 -0.028279383 -0.0459501 -0.019177463 0.1453583 0.051983 0.08385277 0.0063573234 -0.008091796 0.16746075 0.15814131 0.00489091 -0.028424809 -0.047067497 -3.4790854e-05 0.051636368 -0.10156781 0.11199432 0.007305352 -0.14566223 -0.07534443 0.060519665 0.17706694 0.10542308 0.08545039 0.10263873 -0.008708972 -0.06541862 0.0047226343 -0.0999033 -0.10882771
9 -0.035894655 -0.0036859228 -0.058243293 -0.031425975 -0.026111737 0.15913011 0.06805277 0.13270785 0.039695498 0.0002912712 0.19845995 0.16815756 0.007262201 -0.05336486 -0.03341151 -0.025129186 0.062425256 -0.12958694 0.1620939 -0.004173408 -0.18331225 -0.10055764 0.07365717 0.23899335 0.11967937 0.097267106 0.12739773 -0.017157936 -0.0857197 -0.0058069723 -0.11273931 -0.13673629
10 -0.021624437 -0.014808722 -0.017867561 -0.017027926 0.018111305 0.1750346 0.06930257 0.099379286 0.024214013 -0.0035455322 0.2088901 0.17580438 0.0011420093 -0.019326026 -0.048376795 0.015315009 0.0780229 -0.11618741 0.12818538 -0.013108054 -0.16563155 -0.093111426 0.04636292 0.21386214 0.14664936 0.11028318 0.11770771 0.0016611358 -0.10502227 0.0074752904 -0.1210677 -0.13459072
11 -0.030528344 -0.006586569 -0.035404146 -0.0106658675 0.016055062 0.18467574 0.048921727 0.11952908 0.029402686 0.019570358 0.21446678 0.19699623 0.003941479 -0.010479286 -0.020632694 0.00020136121 0.078072116 -0.14736699 0.14647703 -0.015681196 -0.20879544 -0.090094246 0.053525653 0.26225886 0.18471411 0.14182617 0.14709577 -0.025555236 -0.0916768 -0.0020001964 -0.15045615 -0.16838863
12 -0.016956585 0.008936309 -0.007317427 -0.008323305 0.022829937 0.1519803 0.064864606 0.08548471 0.024081029 0.0039955876 0.20170563 0.13961987 0.00019401977 0.012767415 -0.022262521 0.007912849 0.04776153 -0.100539066 0.10610977 0.004707317 -0.18375653 -0.06872369 0.014005479 0.1877588 0.15142724 0.11135573 0.106548175 0.004180566 -0.06980721 0.0076489956 -0.109004214 -0.12598757
13 -0.012237021 -0.0062210844 -0.047567297 -0.03293016 -0.016474003 0.16049232 0.07012193 0.10733733 0.013922711 0.018016143 0.20681264 0.17498036 0.002434107 -0.038473506 -0.038859576 -0.01634016 0.047054898 -0.10047388 0.1506503 0.017948251 -0.17077187 -0.101595215 0.096937425 0.20271963 0.13009533 0.098796606 0.1361131 -0.023560552 -0.08194962 -0.0041301954 -0.11095069 -0.14158739
14 -0.02487277 -0.017518071 -0.03595162 -0.025026005 -0.008598166 0.18715431 0.07032896 0.1219865 0.0335991 -0.007933604 0.216976 0.19071582 0.017928088 -0.035213932 -0.045759346 0.020072874 0.07626216 -0.114356294 0.14887236 0.01484428 -0.19641441 -0.07789735 0.05037313 0.1977148 0.13715024 0.09940118 0.14752692 -0.001044193 -0.07851618 0.003255093 -0.15201685 -0.15021989
15 -0.014580129 -0.0058084126 -0.028453965 -0.019859403 -0.01262539 0.19238967 0.06992714 0.14091875 0.035916798 -0.006179127 0.23416996 0.19099061 0.018044492 -0.042627815 -0.028848507 -0.006122297 0.065271296 -0.11589502 0.14936681 0.0149054965 -0.18739735 -0.11312616 0.0847928 0.21640632 0.15202765 0.10622907 0.14159393 -0.0016180701 -0.08690715 0.0012847777 -0.1414695 -0.1557605
16 -0.024906242 0.0055389386 -0.009612642 -0.03470349 -0.004900412 0.17516327 0.08180267 0.11805371 0.029608183 0.0066964873 0.21565962 0.15149362 0.009900156 -0.026817484 -0.037785135 -0.008208917 0.07894301 -0.12523842 0.14493893 -0.0045031966 -0.20305862 -0.07861091 0.048516702 0.21189974 0.15146561 0.09985052 0.14492165 -0.025703296 -0.08543008 0.0017770751 -0.12695684 -0.17229778
17 -0.03540205 0.018383922 -0.0064618476 -0.035825893 0.01476498 0.1439534 0.083126605 0.109466985 0.017484194 -0.015909495 0.19169003 0.11922188 0.015329427 -0.014477365 -0.029513095 -0.009146311 0.07937458 -0.10903345 0.12735568 -0.00960107 -0.17449725 -0.06355378 0.053471245 0.19492316 0.12101626 0.1001065 0.12360447 0.0026846547 -0.08271854 -0.01565475 -0.1112523 -0.15614285
18 -0.05098759 -0.01367595 -0.04776334 -0.03861764 -0.0035096921 0.18430321 0.06667354 0.13566992 0.026570816 -0.009480219 0.24707672 0.17128102 -0.0045817047 -0.035345215 -0.027789472 -0.043627385 0.0869736 -0.12911563 0.16516207 -0.0038298878 -0.18169983 -0.10140691 0.069275215 0.24398276 0.13861099 0.11469354 0.14639406 -0.008090817 -0.08199089 -0.005856728 -0.12689674 -0.18469739
19 -0.02724246 -0.013539895 -0.038692273 -0.04012794 -0.0024817083 0.15344504 0.059451245 0.09999612 0.020521726 -0.0045438013 0.18431953 0.15134564 0.017260013 -0.041561726 -0.045832362 -0.053647246 0.057889085 -0.11307296 0.13671377 0.015492341 -0.15502413 -0.106223725 0.059552442 0.1849693 0.10854206 0.07642487 0.09476475 0.0008170705 -0.06794125 -0.0078112334 -0.117225274 -0.15639208
20 -0.041676912 -0.0036619925 -0.009111829 -0.03729464 0.007753944 0.1418613 0.05631629 0.11328716 0.03026162 0.0100966515 0.21185815 0.13888647 0.0035236229 0.004631216 -0.033385776 -0.0024992516 0.04539097 -0.11396516 0.14136158 -0.014684756 -0.17382109 -0.073790684 0.029736925 0.19166037 0.11493524 0.0720562 0.11697648 0.014281374 -0.05504927 -0.014428447 -0.11946564 -0.13396601
21 -0.046721276 -0.0052221534 0.0042983214 0.00408165 0.008339698 0.17845619 0.08979867 0.10698562 0.0253063 0.0043132487 0.24164413 0.20495583 0.01908494 -0.019282762 -0.04112272 0.004991438 0.096601255 -0.1203781 0.17316599 -0.0038148002 -0.2214329 -0.093170755 0.037494533 0.24808356 0.17095391 0.127937 0.15283032 0.001560336 -0.08633766 0.003755815 -0.13676862 -0.18609671
22 -0.008323334 -0.0081556225 -0.016873235 -0.027293483 0.0026752837 0.13863008 0.036683947 0.079690255 0.036729496 0.011717662 0.17443432 0.16011046 -0.0049030003 -0.035937298 -0.021351207 -0.0068768705 0.051662534 -0.10054941 0.12056543 0.009814232 -0.15370855 -0.06736705 0.055142824 0.189286 0.11888393 0.077847265 0.107867524 0.00032347566 -0.07412975 0.005407017 -0.1293396 -0.12963171
23 -0.03621386 -0.0017677379 -0.025160657 -0.026901897 0.0030378911 0.18120079 0.0745173 0.106027626 0.035240408 0.00793499 0.24467164 0.18923564 0.006644399 -0.042130023 -0.026951244 -0.0059925593 0.07324205 -0.15050791 0.1595612 0.0039449087 -0.20162761 -0.08853421 0.057983663 0.2570054 0.13978024 0.11010339 0.16267867 -0.015267638 -0.09442967 -0.011454149 -0.12902799 -0.1708139
24 -0.042889047 -0.021801822 -0.021017386 -0.040714845 0.008545148 0.19339088 0.07790427 0.12966101 0.038850874 -0.008754874 0.22509979 0.17538844 0.013184706 -0.017243639 -0.04779189 0.016927034 0.05781859 -0.1421014 0.15035793 -0.013436967 -0.21246336 -0.097102635 0.05797935 0.21575491 0.16756724 0.10269353 0.15320767 -0.0064460174 -0.1006249 0.018365998 -0.13312697 -0.16390634
25 -0.035941828 -0.022352235 -0.024995793 -0.04878899 0.00050415634 0.20261495 0.07193507 0.1362456 0.0034071698 0.008714034 0.27288657 0.19378638 0.009050806 -0.017689828 -0.0572418 -0.01938045 0.064561956 -0.13446552 0.16139448 -0.0014212214 -0.21102291 -0.10767627 0.09212016 0.23548518 0.16382557 0.1159715 0.15218194 -0.005450217 -0.09888108 0.015099678 -0.16623755 -0.16402128
26 -0.050168544 0.0057414346 -0.026636004 -0.018933015 -0.0025879375 0.19174713 0.076117076 0.11574108 0.04411664 -0.005918652 0.27003872 0.213223 0.010011262 -0.034837447 -0.03144273 -0.019627776 0.08707692 -0.13728975 0.18497796 0.014972367 -0.22484732 -0.09715803 0.060351167 0.25605744 0.17219947 0.12707295 0.16879056 -0.0013109642 -0.09514097 0.008984686 -0.14524391 -0.17127414
27 -0.02617878 -0.014980063 -0.02664836 -0.025047984 -0.0028250276 0.1581066 0.053424224 0.082245596 0.014591487 0.0053558233 0.18690428 0.1476445 0.013895553 -0.032932196 -0.03612413 0.008981897 0.07952861 -0.1018591 0.12449143 -0.02105334 -0.17471975 -0.08631017 0.06670104 0.19956945 0.13108586 0.09069629 0.12457616 0.010513584 -0.059158865 -0.015949458 -0.1180943 -0.13386618
28 -0.039089445 -0.0031140358 -0.04918718 -0.02395772 0.00043199898 0.21576117 0.09095849 0.12699568 0.024229001 -0.0050042556 0.27217975 0.21439405 0.003893246 -0.058612257 -0.039952822 0.007935405 0.10279099 -0.15355265 0.1678144 -0.01256557 -0.22322065 -0.10129237 0.08937404 0.265336 0.16436417 0.1314371 0.17650174 -0.011565861 -0.098040015 0.0041252035 -0.15674435 -0.17630415
29 -0.015546677 -0.027918471 -0.03786259 -0.043347273 0.007479096 0.2087199 0.05649758 0.123814784 0.022009825 0.012906446 0.2567524 0.19116019 0.025659736 -0.02885023 -0.059940506 0.012475372 0.08207496 -0.13885227 0.16017523 -0.012469271 -0.21100444 -0.088706926 0.097054444 0.23686469 0.1552315 0.124112405 0.13965528 -0.008026376 -0.09660876 0.0027699333 -0.14258128 -0.14393379
30 -0.008569231 -0.0098493025 -0.011395887 -0.0056462404 0.021933174 0.1766139 0.03738372 0.117034435 0.04077792 0.014288225 0.20435269 0.15764807 -0.0056027705 -0.002666059 -0.027623484 -0.015917433 0.060994796 -0.10382505 0.105481826 -0.00084752997 -0.19142534 -0.06431159 0.058397345 0.18480672 0.12968335 0.1057364 0.13372526 0.009043241 -0.061944548 -0.0014797479 -0.1386476 -0.12974787
31 -0.03036179 0.0011774887 -0.02763724 -0.012276542 0.013113839 0.15144075 0.04862706 0.09536554 0.03237 -0.0035451464 0.20641664 0.16837792 0.00586385 -0.014375456 -0.028855747 0.0014873275 0.07829272 -0.13290781 0.14042616 -0.019461742 -0.18658762 -0.06727508 0.06089917 0.20192021 0.14432165 0.09747004 0.1311315 -0.021694437 -0.09197265 0.00028600596 -0.14604771 -0.13955873
32 -0.045595393 0.00011022104 -0.026227536 -0.029510224 -0.006863561 0.17537493 0.092492186 0.13026619 0.03478746 -0.0016412529 0.21459304 0.1714373 0.0066197645 -0.037908547 -0.037883885 -0.0083890045 0.08979445 -0.13488305 0.14665292 -0.0043911915 -0.18374401 -0.09522134 0.053008806 0.24443057 0.13126434 0.10772181 0.12305221 -0.027062431 -0.09827703 -0.0021493887 -0.12755509 -0.16565093
33 -0.032093696 -0.0075141303 -0.01294611 -0.01133015 -0.005101198 0.17482781 0.06981195 0.09237577 0.025022503 0.00940184 0.21404798 0.19203185 0.018907432 -0.009377634 -0.01857611 0.007512891 0.056927763 -0.112022094 0.121044636 -0.010268993 -0.18350895 -0.08048932 0.03101324 0.22004311 0.14806534 0.114795886 0.12870026 -0.0075398143 -0.09772339 0.005473228 -0.1362707 -0.15698478
34 -0.051791582 0.009191729 -0.03600575 -0.024629422 0.00026424485 0.19190302 0.0841073 0.13308828 0.037998028 0.012877298 0.251106 0.17768086 0.0072532822 -0.011135857 -0.014708814 -0.026545405 0.07638325 -0.13696523 0.17745845 0.0046574753 -0.23054424 -0.07941953 0.049809027 0.23383757 0.15453126 0.111305274 0.14519382 0.0026995896 -0.10237211 -0.029553482 -0.15530625 -0.17379554
35 -0.018048448 -0.015923675 -0.028512094 -0.040788796 -0.0012056845 0.16614462 0.04442249 0.12293696 0.02969471 0.0147619145 0.1949446 0.16981147 0.021940952 -0.03764147 -0.053609665 -0.016424904 0.07396813 -0.1323228 0.13626263 0.005870723 -0.16193052 -0.111834385 0.06327612 0.20095424 0.13569126 0.10319674 0.12707855 -0.026657758 -0.07484138 -0.012368857 -0.13525443 -0.13112779
36 -0.021031551 -0.008955639 -0.011154831 -0.018704066 -0.011778399 0.17652525 0.08369864 0.10005033 0.03122278 -0.003622718 0.21330607 0.16153587 0.00888863 -0.0031109946 -0.025884338 -0.009873091 0.05480576 -0.12964243 0.15758388 -0.0043391674 -0.19916478 -0.07394901 0.055395704 0.22984876 0.13341643 0.09277258 0.1466793 -0.01142314 -0.09652216 -0.002974423 -0.12200046 -0.14779688
37 -0.046036713 -0.0115238875 -0.03765372 -0.040740423 0.010759639 0.18418622 0.08076104 0.1418093 0.047011178 0.013338266 0.23428087 0.18471141 0.02834517 -0.008073777 -0.022016263 -0.033923056 0.09180959 -0.15062815 0.16494542 0.0013791394 -0.23295985 -0.1064543 0.053940747 0.2518264 0.18396983 0.12448863 0.15430033 -0.018150657 -0.08539582 -0.018017096 -0.1627576 -0.18275812
38 -0.03012858 -0.008031565 -0.03960771 -0.021884302 0.010644713 0.17213435 0.07218551 0.11236386 0.038770188 0.009630161 0.21376228 0.16408968 0.024607092 -0.042777672 -0.038979154 -0.021977676 0.0798934 -0.13946865 0.14835668 -0.002648035 -0.18597914 -0.08919154 0.06735683 0.23392354 0.15078843 0.10555744 0.11025824 -0.0027050478 -0.09217904 0.016366856 -0.14036292 -0.14972247
39 -0.03438986 -0.0051326565 -0.03839014 -0.018207453 -0.00991743 0.17532106 0.06594081 0.11119378 0.030729106 0.003534914 0.19589403 0.16908383 0.027282702 -0.023940556 -0.0427589 -0.013265019 0.06379451 -0.11269959 0.14336973 0.010111191 -0.16376112 -0.09696439 0.047643322 0.22321323 0.14666541 0.10841619 0.13528273 -0.021390337 -0.09957528 0.0190825 -0.13686372 -0.1524553
40 -0.021629741 -0.008654051 -0.0036771493 -0.029027969 0.0048503918 0.18538474 0.06968912 0.122684404 0.03180343 -0.008650462 0.24337053 0.19026093 0.004164092 -0.028443148 -0.048925452 0.022582456 0.09264115 -0.12319632 0.1683811 -0.008055166 -0.2104104 -0.09405398 0.05952303 0.21468177 0.14724748 0.10588103 0.15784429 -0.017050799 -0.09782064 0.002311642 -0.12606974 -0.1466343
41 -0.023898767 -0.0033881252 -0.06214927 -0.052585416 -0.0027345456 0.21867567 0.07569431 0.13850245 0.0030416385 -0.014214495 0.24831055 0.19508658 0.0062466715 -0.03388842 -0.05141206 -0.007934396 0.07686169 -0.1262253 0.1774711 -0.0062228832 -0.20568298 -0.11785829 0.099923156 0.2505492 0.13248983 0.10839296 0.16421565 -0.006044847 -0.09249177 0.0030807913 -0.13105987 -0.15725647
42 -0.031967737 0.005261936 -0.040076744 -0.034615096 -0.0107965395 0.15633094 0.074019074 0.124738336 0.0029159463 0.00018790129 0.20694947 0.15464804 0.0036908763 -0.018467914 -0.024391735 -0.02416878 0.04864606 -0.10506291 0.1496225 -0.0016780178 -0.18003552 -0.09455855 0.062302776 0.21188924 0.109044194 0.076002106 0.1379311 -0.009644047 -0.07170567 -0.0075716567 -0.124691084 -0.14323424
43 -0.043281917 0.0072533954 -0.038786616 -0.03988311 -0.0030420746 0.16956586 0.087006666 0.12979792 0.037365027 -0.023177678 0.24001028 0.1743804 -0.00048474013 -0.021586223 -0.020159787 -0.027942713 0.06756746 -0.14007697 0.18395533 -0.033538874 -0.19493477 -0.11503693 0.07086314 0.27585325 0.14224729 0.09608914 0.14861399 -0.005665687 -0.07691547 -0.02645144 -0.14868405 -0.1723599
44 -0.06017722 0.0027919821 0.0069168312 -0.019321684 0.016740223 0.19571012 0.107573666 0.13276929 0.045803905 0.0014321954 0.25909182 0.18968093 0.027074162 0.013708387 -0.01949271 0.013845982 0.080292724 -0.14987978 0.15882497 -0.0058396216 -0.22815831 -0.094170704 0.023434952 0.2596148 0.18672481 0.14186727 0.16155122 0.006048339 -0.09888686 -0.0016257331 -0.1705542 -0.18144642
45 -0.00672198 -0.011679739 -0.025384631 -0.03359452 0.0010185391 0.15433477 0.06587 0.091962196 0.012552714 0.002604367 0.16623452 0.1550167 0.009192708 -0.024800612 -0.021987664 0.005373774 0.04958749 -0.12248675 0.13506947 -0.0060703373 -0.15393595 -0.07152533 0.07742718 0.20351696 0.13044941 0.071931936 0.09544243 -0.027752206 -0.053915784 0.010895253 -0.11889965 -0.115780696
46 -0.0076364763 -0.009047165 -0.046243194 -0.02550562 -0.005065414 0.18664539 0.05412099 0.118441984 0.01504728 0.0021448424 0.24327584 0.19306007 0.0144474665 -0.024028936 -0.03530552 -0.0165671 0.07586086 -0.122921705 0.13316731 0.015288972 -0.21249233 -0.08805646 0.061463933 0.23922513 0.1505895 0.111514054 0.14460741 -0.017918289 -0.10204708 0.022881053 -0.13752806 -0.1599857
47 -0.042871326 -0.009383142 -0.025184987 -0.025600867 0.0132522425 0.1822684 0.110506356 0.12124268 0.03668671 -0.005322725 0.26872995 0.18381837 0.017917136 -0.014972491 -0.04118965 0.003310868 0.08543934 -0.12315249 0.16276684 0.0062376326 -0.22146313 -0.115821816 0.052140288 0.2476398 0.16265014 0.13879375 0.16684486 0.0070660063 -0.09336509 -0.0028513367 -0.14472322 -0.18267061
48 -0.034200843 -0.016130885 -0.04146574 -0.02535071 0.008677819 0.1655412 0.053410765 0.10711337 0.015721763 -0.0019413608 0.2112512 0.18765345 -0.0060359635 -0.021704236 -0.027946863 0.008207724 0.07918764 -0.12300729 0.123941556 0.011978572 -0.19468875 -0.07277782 0.07094055 0.22105868 0.12879479 0.115159474 0.12974566 -0.007898764 -0.08870837 0.0003315918 -0.13766044 -0.15564756
49 -0.013504413 0.00019843773 -0.038738277 -0.052097876 -0.012293047 0.1727661 0.06932055 0.117480226 0.012824471 0.0055393674 0.21043214 0.18839476 0.01792506 -0.029172214 -0.052347973 0.016808081 0.074786894 -0.12849617 0.13272023 0.0060209827 -0.17543982 -0.10167233 0.073293634 0.20610689 0.13340834 0.0850994 0.13192387 -0.017711552 -0.07657908 -0.0036210467 -0.119268015 -0.1383979
50 -0.024048874 0.0030721377 -0.020263812 -0.015107091 -0.009422429 0.14308853 0.06946872 0.11076434 0.011445234 -0.014130069 0.18988629 0.15977554 0.005002109 -0.0010887026 -0.019154463 0.0016178342 0.07424556 -0.111944735 0.14773305 0.013994066 -0.157146 -0.08906604 0.022935864 0.19362013 0.13745016 0.08404103 0.11624294 0.008960742 -0.075568035 0.009057856 -0.11125748 -0.14303537
51 -0.040167984 -0.011953459 -0.040625796 -0.03478017 -0.01825183 0.19064161 0.06494007 0.12880473 0.015652914 -0.0018275526 0.25069964 0.19867001 0.011648627 -0.019926053 -0.052899364 -0.010634415 0.088409126 -0.13639338 0.163944 -0.006313545 -0.21081008 -0.09899709 0.05806727 0.24550988 0.1392892 0.12916946 0.14636055 -0.024319816 -0.117408566 0.0057467767 -0.14805979 -0.1599176
52 -0.044081375 -0.0016162501 -0.036060117 -0.0506751 -0.00068401516 0.21581529 0.063811086 0.14565761 0.031515673 0.0043610027 0.2564715 0.2095496 0.0053047435 -0.051752817 -0.04705879 -0.014012572 0.08139295 -0.12899815 0.18062675 -0.0061140736 -0.2098087 -0.10804389 0.0680609 0.24044453 0.145796 0.12353218 0.1534399 -0.010442165 -0.10787114 -0.008812308 -0.14176601 -0.15992595
53 -0.023139521 -0.01323597 -0.025277205 -0.019421767 -0.009934228 0.19415829 0.07964106 0.13135935 0.032278847 0.01590887 0.25099668 0.20694797 0.0061400933 0.00035044758 -0.0397691 -0.02613907 0.09026456 -0.14865012 0.1629533 -0.0019645446 -0.23302151 -0.09365518 0.07329586 0.277725 0.18751337 0.10845318 0.13629335 -0.0147860255 -0.11010615 -0.020635061 -0.15654767 -0.17907095
54 -0.036768563 0.009413913 -0.011072717 -0.02522773 0.02400794 0.20315659 0.09744216 0.13495186 0.032882456 0.009279964 0.26575127 0.20288032 0.02723753 -0.015538158 -0.028573368 -0.025442729 0.08997495 -0.12215067 0.17331114 0.012198617 -0.23585261 -0.08568389 0.04557404 0.2541774 0.17886826 0.11574584 0.14673504 -0.0013046431 -0.11577374 0.010555537 -0.14994094 -0.1918208
55 -0.036625285 -0.0040218686 -0.050361004 -0.01839509 -0.0036307143 0.15749723 0.06122278 0.114740685 0.0076007955 -0.015992709 0.213059 0.15939967 -0.0045320974 -0.034978434 -0.03277534 -0.023784563 0.07036657 -0.12856716 0.14592762 -0.0016692822 -0.19153473 -0.07681113 0.06561621 0.20178667 0.11817535 0.09065808 0.12049862 0.0072036795 -0.06782333 -0.008693801 -0.11862362 -0.15293717
56 -0.027013427 -0.0229544 -0.026929066 -0.02958205 -0.005241605 0.17057474 0.043348417 0.12289795 0.010112773 0.02076057 0.21645029 0.14830688 0.0039148577 -0.009926905 -0.04960079 0.009875241 0.06076777 -0.106177755 0.12223208 -0.0140796695 -0.15377189 -0.08513841 0.059238106 0.1822266 0.12321794 0.0983612 0.12634906 -0.023396851 -0.101571895 0.023606664 -0.12950893 -0.13330398
57 -0.051940255 0.003397965 -0.07051012 -0.06829239 -0.017218458 0.18638168 0.08775142 0.14437765 0.029704714 -0.018537708 0.23872413 0.17470424 0.011195378 -0.07604047 -0.044595607 -0.022816097 0.08005923 -0.13245238 0.17973588 0.00406741 -0.18165228 -0.11448221 0.10241034 0.26934195 0.14429973 0.09163442 0.15445164 -0.018068692 -0.09772186 -0.013922138 -0.13771309 -0.1695555
58 -0.03426824 -0.014354932 -0.016239753 -0.014386329 0.011523909 0.15972574 0.0628347 0.09466165 0.02547851 0.0057732384 0.21272554 0.18232019 0.0049701342 -0.014509391 -0.039430097 -0.004173036 0.063648194 -0.09752839 0.13723905 0.010685684 -0.18595581 -0.05911493 0.03872346 0.20777021 0.15901966 0.12304097 0.11539779 0.0054272953 -0.092741586 0.02381033 -0.14381939 -0.1583309
59 -0.014288477 -0.010727953 -0.025846135 -0.017238697 0.0038520866 0.16844046 0.07148659 0.11357909 0.008885016 0.008767903 0.23103274 0.15960358 0.016271276 -0.0066519114 -0.048447393 -0.007068409 0.060571935 -0.1196841 0.12556478 0.001907905 -0.17564745 -0.09114957 0.0672989 0.19311556 0.13995942 0.10324243 0.12958078 -0.012343258 -0.09627209 -0.005985334 -0.13837086 -0.15309371
60 -0.047204174 -0.011734013 -0.036338333 -0.050894246 0.010408084 0.20009671 0.0709202 0.1355848 0.017649353 0.0022005942 0.2503375 0.16089346 -0.0068636714 -0.018989094 -0.036878414 -0.017411144 0.05886776 -0.12729274 0.1671584 -0.026773153 -0.22384557 -0.10620782 0.0521671 0.24993028 0.14544427 0.12030239 0.15066683 -0.01728518 -0.10204445 -0.025315266 -0.15372357 -0.17585136
61 -0.06289874 -0.0016051704 -0.02348188 -0.0013252823 0.00226851 0.20041056 0.10435556 0.11633686 0.058492526 -0.009735359 0.25566092 0.18452092 0.009868832 -0.02989816 -0.022236332 -0.041227687 0.068544045 -0.14469293 0.18298815 -0.0019343676 -0.2396962 -0.11389415 0.049632262 0.26237062 0.18187326 0.09715768 0.1594582 0.014799366 -0.101099335 -0.011473215 -0.15923113 -0.19163948
62 -0.025187079 0.0014604796 -0.04454294 -0.033543535 -0.019563552 0.17481416 0.0692412 0.11840732 0.010951541 0.01145311 0.20650323 0.14556384 0.009874563 -0.0079945875 -0.034378126 -0.02044446 0.062260486 -0.10158353 0.12596574 0.014683019 -0.17673287 -0.08211129 0.06277195 0.2030257 0.1344095 0.08322795 0.12123173 -0.02211254 -0.0712651 0.011102761 -0.111068785 -0.1488451
63 -0.0341049 0.0056441324 -0.053584784 -0.038645938 -0.023165692 0.19680642 0.083363 0.13268964 0.012356395 0.013920354 0.24854988 0.19125137 -0.00588314 -0.02326213 -0.04791219 -0.01788272 0.0513768 -0.10877434 0.14142185 -0.0061741737 -0.18648867 -0.115029566 0.09962351 0.22130387 0.14942054 0.10415058 0.15790229 -0.0104626175 -0.08225685 0.005345195 -0.13583548 -0.14731616
64 -0.03607635 -0.014420838 -0.0175735 -0.027889209 0.0034355754 0.18767264 0.051283106 0.13411148 0.0080021005 0.0058286185 0.2573505 0.21199599 0.00951536 -0.017340811 -0.050268646 0.027263733 0.080312185 -0.12842341 0.15046431 0.0028024837 -0.21347451 -0.08933725 0.08316118 0.22025548 0.15218209 0.11929129 0.1593861 -0.0044378717 -0.10226255 0.019577973 -0.14078738 -0.16114624
65 -0.034621663 0.004130382 -0.020572737 -0.016584052 -0.021623146 0.1830691 0.06558726 0.106938586 0.030437171 0.018096933 0.2209779 0.18082508 0.016766531 -0.046348587 -0.03308882 0.0035826736 0.060274266 -0.123703055 0.14816661 0.011458372 -0.18900478 -0.095310435 0.06567037 0.22566365 0.1526765 0.10441479 0.13009016 -0.025519663 -0.092280306 -0.004417415 -0.13759162 -0.147118
66 -0.03125615 -0.010985918 -0.058074944 -0.05063677 -0.016725238 0.19616519 0.07230084 0.13737126 0.01042108 0.014242678 0.2358957 0.17519875 0.000978753 -0.04704921 -0.056752864 -0.020284677 0.075117774 -0.12607518 0.14273396 -0.0062449356 -0.18333577 -0.11805583 0.10067859 0.2503156 0.13250539 0.09828662 0.13647178 -0.02241052 -0.07279184 0.008522464 -0.12516692 -0.1595687
67 -0.023787335 0.0015356514 -0.016426645 -0.013921284 0.020591823 0.17091405 0.08686063 0.10394285 0.038960293 -0.018755509 0.21992308 0.17088471 0.015230253 -7.82467e-05 -0.015646921 -0.023402836 0.09388068 -0.13023779 0.163875 -0.009529762 -0.18655586 -0.082338415 0.04922911 0.24205011 0.15132935 0.122061335 0.12625217 0.0008685614 -0.08383917 -0.013848107 -0.16014215 -0.15446447
68 -0.04096998 -0.0034698038 -0.029267196 -0.047123786 0.0065195393 0.17764285 0.058158696 0.1305697 0.026502661 0.015286968 0.23069656 0.17997827 0.018652666 -0.017320927 -0.04095681 -0.00751314 0.06865913 -0.105706915 0.14764945 -0.004045459 -0.19679932 -0.08207763 0.057537746 0.19705808 0.12075206 0.082845695 0.15050992 0.0019829872 -0.07208174 0.0012617975 -0.12868856 -0.16668749
69 -0.041000005 -0.007398523 -0.028202923 -0.023626111 0.009558722 0.18580408 0.08848207 0.11947542 0.025729913 0.017399266 0.25885677 0.17869253 0.019637866 -0.014241014 -0.025313068 -0.008239955 0.08805194 -0.12580188 0.14876655 -0.016423421 -0.19896603 -0.09188923 0.06206512 0.24315509 0.15830137 0.14003386 0.16092974 -0.02343127 -0.10075497 -0.007869733 -0.15208614 -0.16290486
70 -0.039373647 -0.0076859267 -0.010552519 -0.01764487 -0.0032354945 0.1484398 0.04503072 0.08984144 0.009681782 -0.008256548 0.16718432 0.13906656 0.017485077 -0.02882193 -0.022355037 0.0067762174 0.06167962 -0.1065813 0.11706036 -0.015712306 -0.15176147 -0.053526398 0.047820386 0.19401589 0.11414175 0.09505593 0.11787021 -0.013570649 -0.05490106 -0.0050493567 -0.117895365 -0.13458763
71 -0.035563465 0.0026790833 -0.022013364 -0.0017311662 -0.0021632405 0.15748198 0.039494056 0.08860606 0.028632823 0.0001929176 0.17247303 0.14630899 0.025756838 -0.042069424 -0.04658749 0.00908729 0.0660068 -0.10547241 0.11212244 0.0009088039 -0.14331748 -0.058901183 0.055386357 0.19353493 0.13023585 0.09861064 0.11465148 -0.004883109 -0.09755389 0.026976889 -0.10377751 -0.1176609
72 -0.021608995 -0.0078928135 -0.031769663 -0.03934031 0.00753657 0.16433118 0.067264244 0.0980565 0.013810577 0.01833411 0.21618192 0.14660655 0.026963027 -0.035634663 -0.033822365 -0.024818296 0.071895346 -0.10593945 0.12832798 0.009826981 -0.187136 -0.10664267 0.0704432 0.21708573 0.14651793 0.08802283 0.13550936 -0.010525709 -0.09333139 0.0037821007 -0.10344605 -0.15536702
73 -0.04600419 0.009720836 -0.028983451 -0.024976239 -0.0061111962 0.18586701 0.08291212 0.12824222 0.03680816 -0.012901623 0.22403733 0.17553781 0.009019615 -0.023789072 -0.020428803 -0.029706143 0.08205746 -0.14112774 0.15941457 -0.0010241036 -0.22141294 -0.10766544 0.07527426 0.2489602 0.15319875 0.122965984 0.14429861 -0.0023164498 -0.08084303 0.005539355 -0.15381692 -0.16793056
74 -0.01640824 -0.00571569 -0.005978612 -0.024806129 -0.0016667303 0.17782325 0.07586822 0.115518965 0.014014504 -0.006088343 0.22757928 0.14954317 0.011062434 -0.0010797499 -0.029459016 -0.0067973933 0.060678452 -0.09557244 0.13301896 -0.014574945 -0.18715893 -0.090456955 0.054417524 0.18663175 0.12966833 0.08186785 0.11752028 0.0147952065 -0.06790124 0.0050509614 -0.118820675 -0.14268197
75 -0.045360427 -0.0012915701 -0.030988863 -0.038060546 0.009926931 0.1907972 0.09088275 0.14174967 0.02685601 0.024367897 0.2526702 0.18729453 -0.00482003 -0.022751022 -0.028378006 -0.01749896 0.078216895 -0.12310794 0.16197033 -0.023857642 -0.22140087 -0.10004111 0.070460774 0.23382701 0.18076232 0.1279759 0.16512714 -0.009031295 -0.10317478 0.014932614 -0.14931542 -0.16760387
76 -0.041670084 -0.005340178 -0.03382236 -0.024861142 0.0059395498 0.23041901 0.096034035 0.14553683 0.052980874 0.018853813 0.2814513 0.24003753 0.0099230865 -0.016910331 -0.05265517 0.006937601 0.10601151 -0.17234732 0.18856172 0.003842706 -0.27316594 -0.10661822 0.049820434 0.29486802 0.1985986 0.15151723 0.18299262 -0.015252525 -0.13314669 -0.0002951219 -0.18333 -0.21273701
77 -0.036687136 -0.013235811 -0.015894825 -0.031191709 -0.009905827 0.1927403 0.07229226 0.1338482 0.012698622 0.008872028 0.22965157 0.1969658 0.01651957 -0.015758254 -0.025450068 -0.0012149212 0.08340959 -0.11816863 0.16266261 -0.018145325 -0.21852551 -0.0909159 0.04028914 0.22477943 0.15894903 0.10798997 0.1471779 -0.0017114142 -0.06804928 0.0021303864 -0.12977594 -0.17184022
78 -0.032533795 0.008193259 -0.024432335 -0.019840838 0.0146459155 0.15254125 0.072859906 0.1087611 0.03631269 -0.005422353 0.21161047 0.16131686 0.010154015 -0.015490301 -0.04428687 -0.006124401 0.083820514 -0.11947182 0.15253976 0.0034373167 -0.17910364 -0.082947455 0.059898455 0.20417611 0.15444258 0.09990512 0.13137726 -0.0045872685 -0.10129691 -0.0034212426 -0.14614403 -0.15513647
79 -0.048891407 -0.00773362 -0.04821188 -0.055235207 0.0058772857 0.1780384 0.0956482 0.119771406 0.015806587 -0.00029849051 0.24292871 0.1530175 -0.0010563063 -0.033876423 -0.03472832 -0.018778797 0.06490812 -0.14686361 0.16612098 -0.014626796 -0.20968282 -0.11354827 0.07092674 0.23535906 0.15136829 0.0952073 0.14775997 -0.012128181 -0.06081643 -0.014697546 -0.14101617 -0.15952243
80 -0.046000212 -0.0066054855 -0.024642777 -0.024693158 0.007996332 0.15958388 0.096077405 0.12662382 0.037975647 -0.0019066064 0.23676018 0.1729444 -0.0010101369 0.0067771045 -0.03496271 -0.048228852 0.067444034 -0.13181221 0.14189114 0.0010790979 -0.2118788 -0.079320095 0.06192833 0.2590877 0.15600142 0.11177635 0.14871067 0.02002143 -0.078506246 -0.00687195 -0.14523596 -0.18349864
81 -0.03790203 0.009867744 -0.01708285 -0.0058050593 2.4684276e-05 0.16314928 0.050490692 0.11336501 0.047278587 0.011517294 0.18287985 0.13001475 -0.0023462905 -0.048046637 -0.023412598 -0.0007450091 0.071347795 -0.12634653 0.14457233 -0.0025525633 -0.17829655 -0.087423384 0.05430206 0.22495155 0.14760678 0.0963205 0.114959195 -0.028058685 -0.096376225 0.005085977 -0.12496977 -0.14126563
82 -0.01527402 -0.01099754 -0.001996525 -0.0140769 0.017038824 0.17112249 0.054805215 0.0925835 0.04556722 0.012188732 0.21285757 0.14196144 -0.001537055 -0.015624908 -0.03225877 0.007518407 0.06329376 -0.12312223 0.1429356 -0.013653962 -0.18718535 -0.065749906 0.024275215 0.20910221 0.1575288 0.08889742 0.1288236 -0.020756153 -0.08228657 -0.014158907 -0.14627475 -0.15413761
83 -0.029592132 -0.021130832 -0.049324352 -0.024592873 -0.0058730226 0.18863428 0.06762238 0.11170276 0.040209588 -0.006716337 0.2489928 0.19083548 0.013096604 -0.041484535 -0.03766037 0.008101655 0.074220486 -0.14826104 0.14492749 -0.0063435566 -0.19629186 -0.0862368 0.07502227 0.25537843 0.16181804 0.09180262 0.13931534 -0.022864712 -0.09805904 -0.011814311 -0.14932023 -0.15531743
84 -0.020580288 0.0023776153 -0.04456435 -0.03993884 -0.0052837045 0.16264418 0.05595233 0.12507096 0.029236432 0.012497933 0.18575385 0.158822 0.011604276 -0.0075698746 -0.017437024 -0.03223725 0.04994182 -0.106155224 0.12836714 -0.007780978 -0.18676192 -0.07961773 0.068371385 0.23322617 0.12276617 0.07791504 0.12213838 0.010141984 -0.06830792 -0.031662602 -0.12896073 -0.13867003
85 -0.04985357 0.004976111 -0.027468994 -0.06926089 -0.0008647272 0.20706666 0.10362613 0.15334728 0.020375358 0.006850282 0.30459076 0.21100168 -0.00073138694 -0.03110865 -0.060226858 -0.016603068 0.06649865 -0.1423446 0.18499565 -0.003237953 -0.23970631 -0.11959362 0.08059484 0.29041967 0.16188756 0.13401835 0.17263171 -0.021255603 -0.11558781 -0.020503193 -0.16318895 -0.20839055
86 -0.007977924 -0.027463418 -0.051049966 -0.0459845 -0.012680937 0.18814832 0.04771948 0.13410915 0.0010366369 0.016952274 0.22982167 0.17964831 -0.0013249741 -0.020625927 -0.05001818 0.011253997 0.04627471 -0.10065227 0.13165662 -0.01188879 -0.18691194 -0.11639762 0.10625146 0.20127219 0.13110211 0.098703176 0.12762356 -0.025957773 -0.08819649 0.013396918 -0.13112333 -0.12163013
87 -0.036006656 0.005790901 -0.034380816 -0.0390634 -0.014261503 0.15870136 0.07580835 0.104026064 0.015172948 0.01284872 0.19905366 0.15497166 -0.0012610035 -0.024034016 -0.038966637 -0.000201998 0.047285423 -0.09961377 0.14141805 -0.013688091 -0.15193999 -0.07905278 0.09035616 0.2019234 0.12688665 0.085587025 0.11114899 0.011552746 -0.08301116 -0.010766115 -0.12265408 -0.124695696
88 -0.01635873 0.0019595067 -0.025341216 -0.030619442 0.022018544 0.1800969 0.0682677 0.11503139 0.038433425 0.012682525 0.22949499 0.17215489 0.022827705 -0.027351143 -0.026261674 -0.0045467797 0.06672019 -0.115009345 0.13712515 -0.005400236 -0.18361925 -0.06808567 0.03552611 0.22152458 0.1696681 0.106673405 0.12825435 0.0013562158 -0.08548454 0.0023302725 -0.15959963 -0.15859294
89 -0.026283417 -0.010168232 -0.032847937 -0.028111914 -0.0017920136 0.1769257 0.046620473 0.1161437 0.02667147 0.02187363 0.21233882 0.17105865 0.011766831 -0.0067136465 -0.03425487 0.012839481 0.050203 -0.106020674 0.13802946 -0.013235807 -0.1852905 -0.06574578 0.038976848 0.20853542 0.1411052 0.10655484 0.14838685 -0.019020403 -0.081014894 -0.00036982 -0.13961087 -0.12970775
90 -0.027885519 -0.00624003 -0.062283844 -0.03898552 -0.021531545 0.19343255 0.09184716 0.13254628 0.027811699 -0.012324689 0.26610324 0.20221588 0.018739767 -0.05765587 -0.06456218 -0.015696282 0.072617516 -0.14901996 0.16218266 -0.00178799 -0.20319383 -0.11678403 0.0939079 0.24749292 0.13749324 0.09578453 0.1493557 -0.023995193 -0.0876907 -0.019205889 -0.13099417 -0.17898111
91 -0.023093628 0.004759963 -0.05292385 -0.042429492 -0.020479815 0.20133117 0.085357845 0.15044326 0.02109741 -0.0121701835 0.2568883 0.18531905 0.009081785 -0.03567598 -0.05908295 -0.021108814 0.06829277 -0.14100777 0.16910273 0.00202952 -0.2091402 -0.11547562 0.097520806 0.2710977 0.1335043 0.100722946 0.15917121 -0.018322898 -0.08582153 -0.0020094544 -0.15227959 -0.19056524
92 -0.023975639 -0.02390261 -0.027159417 -0.03881769 -0.01905237 0.1567961 0.08107657 0.112716876 0.0438424 0.009347293 0.2014873 0.17327811 0.0018917989 -0.03658505 -0.054222357 -0.025697678 0.06817556 -0.11604582 0.15299001 0.0042462335 -0.173038 -0.084807426 0.039515764 0.23134992 0.13457449 0.10748 0.13261937 -0.017538743 -0.11041989 0.003477331 -0.1378368 -0.16832794
93 -0.01824999 -0.02244012 -0.050306488 -0.02290616 0.009413496 0.16802378 0.05741696 0.11328535 0.026058577 0.007931916 0.23560093 0.18309322 0.00080841605 -0.035310756 -0.050008513 0.0068171527 0.083615616 -0.13627067 0.15831417 0.010562384 -0.19648188 -0.09917451 0.077333786 0.22462243 0.15629469 0.10909039 0.13281523 -0.01056984 -0.10507053 0.024530996 -0.13134485 -0.14275274
94 -0.019933688 -0.004503903 -0.028244983 -0.032394666 0.008879795 0.16610356 0.07990414 0.111329675 0.018787263 0.017608255 0.21018016 0.15372162 0.013192807 -0.0069651916 -0.033027776 0.0026825662 0.049593754 -0.1063754 0.1308274 -0.009844135 -0.17934963 -0.09024537 0.06530468 0.20133513 0.14722462 0.08828807 0.12543951 0.010728629 -0.09141842 0.013748782 -0.11700634 -0.14939016
95 -0.047585864 0.009058546 -0.038480446 -0.026679425 -0.010256394 0.22876917 0.08984563 0.13807862 0.03527876 0.009044177 0.27822122 0.20324437 0.013578326 -0.022388171 -0.03516596 -0.010926027 0.06861758 -0.14793517 0.1957551 -0.017669924 -0.24300542 -0.091961876 0.072668925 0.26977426 0.188958 0.11587201 0.16304222 -0.021432348 -0.094121866 -0.015745794 -0.17556256 -0.17343259
96 -0.025009824 -0.008516266 -0.034490805 -0.044354033 -0.022207398 0.17827798 0.0724649 0.11202729 0.020836094 0.004442384 0.21475491 0.18523103 0.012687878 -0.04531841 -0.0525397 -0.026709843 0.07719841 -0.10992712 0.12574054 -0.012114625 -0.16073252 -0.108499594 0.074477896 0.22839731 0.1396151 0.08835186 0.11481876 -0.015380743 -0.09802265 0.014065249 -0.13551314 -0.14530936
97 -0.033526823 -0.014800584 -0.0203042 -0.030810669 -0.009045098 0.19836259 0.06888639 0.14322467 0.025487632 0.0064227027 0.24933513 0.18809415 0.020588212 -0.033118498 -0.040661503 -0.010706043 0.09037698 -0.14729498 0.18549445 -0.008761051 -0.23435552 -0.10263193 0.05883778 0.24811353 0.15660186 0.11188776 0.16642447 -0.0052544996 -0.09192335 -0.016301932 -0.1485175 -0.18753551
98 -0.015659986 0.007148902 -0.026780015 0.005079521 0.0076114587 0.15579799 0.047037322 0.1077196 0.015592616 0.011557557 0.21860187 0.19889289 0.004563632 0.011862915 -0.051185455 0.011192714 0.06407819 -0.10290749 0.12667464 0.0071717687 -0.17038104 -0.06269556 0.039770093 0.22590433 0.14788899 0.15008317 0.13793504 -0.009629037 -0.09024781 0.019591287 -0.16383213 -0.15326914
99 -0.034044635 -0.008735674 -0.035355568 -0.03814836 -0.009761115 0.20494793 0.07408088 0.10954181 0.03299408 0.01729674 0.2561727 0.17513551 0.009946001 -0.026330536 -0.038058154 -0.0027703024 0.06723686 -0.14780506 0.17036222 0.0054602725 -0.2162883 -0.11282632 0.054445535 0.2403443 0.17254512 0.10910602 0.15338477 -0.004880031 -0.08922433 0.013683207 -0.1520162 -0.17946638
100 -0.022091724 -0.022082543 -0.041653965 -0.01837146 -0.009148864 0.15412183 0.057250474 0.088249214 0.014304804 0.011513153 0.18260567 0.13331759 -0.010724145 -0.019878572 -0.046118595 -0.004973488 0.046238612 -0.08850554 0.11230158 -0.010650654 -0.14238584 -0.08030122 0.08760855 0.1848155 0.09057009 0.06413949 0.11463269 -0.0028373396 -0.071555294 0.008444581 -0.0893691 -0.12175039
101 0.0028011722 0.0006912632 -0.043347742 -0.03414982 -0.018036373 0.16786003 0.03741116 0.12510708 0.0022277173 0.02936724 0.18849075 0.16756436 -0.006506556 -0.033105005 -0.031233747 -0.018512705 0.040894926 -0.093626134 0.10889946 0.006850953 -0.16438617 -0.07141329 0.08247951 0.18770602 0.13589577 0.08232189 0.11762721 -0.016494254 -0.06664687 0.0310015 -0.12115303 -0.119386636
102 -0.014118382 0.0021093583 -0.023891442 -0.009310714 -0.012045788 0.20082545 0.047313683 0.12906611 0.029718904 0.0022182683 0.2285021 0.17282183 -0.0046219868 -0.013032965 -0.048375458 -0.007929166 0.07338014 -0.13112548 0.15074606 0.00229509 -0.20680012 -0.10048351 0.06341778 0.2286431 0.14853561 0.0930667 0.13716729 -0.012988491 -0.09642054 0.007915343 -0.13732111 -0.15945704
103 -0.028117266 -0.0047696736 -0.063985325 -0.06079914 -0.016664274 0.17196774 0.042189285 0.13387015 0.016007459 -0.0041019176 0.1955276 0.16809842 0.0144767435 -0.051303048 -0.049872313 -0.010459682 0.05122306 -0.13158274 0.12516262 -0.0025506208 -0.16945982 -0.10723629 0.11305673 0.20220754 0.14279622 0.08122207 0.13134556 -0.025809508 -0.093415454 0.013554804 -0.13383345 -0.1467969
104 -0.015401741 0.016368633 -0.030232735 -0.006779483 0.015902122 0.13009286 0.042206075 0.10788316 0.030574294 -0.0036200841 0.17750078 0.14398237 0.014683596 0.021274574 -0.036629386 -0.009647272 0.06754095 -0.08434992 0.1113017 -0.0054116384 -0.17405082 -0.046133522 0.017921103 0.18756197 0.14958414 0.090614885 0.08826454 -0.008348478 -0.08254321 -9.712024e-05 -0.122054204 -0.15136088
105 -0.019655129 -0.01585893 -0.028692998 0.0011796474 0.0047957767 0.20564519 0.071090415 0.12401465 0.03938847 -0.0013622582 0.24839307 0.20036517 0.010769655 -0.0108575905 -0.036050435 0.023760758 0.076695256 -0.15146902 0.1427901 -0.014452325 -0.20916869 -0.086402096 0.046404287 0.2448368 0.16587938 0.13722056 0.14516921 -0.013978115 -0.10917686 0.022502925 -0.18612932 -0.15677273
106 -0.03791982 0.0052183284 -0.032651525 0.0010134112 0.016522909 0.19939262 0.068996735 0.13705811 0.027274845 0.011658976 0.24032807 0.21337761 0.011570385 0.004391428 -0.034375392 0.012553802 0.08302835 -0.1232967 0.12717982 -0.008094072 -0.2163955 -0.096429475 0.052917764 0.23502673 0.16832757 0.12300172 0.14450306 -0.0031233332 -0.08387347 0.02887669 -0.14347549 -0.15669805
107 -0.012767405 -0.018124394 -0.048471358 -0.015958283 -0.01052701 0.12602404 0.065640815 0.087031126 0.0053739655 0.02706854 0.1734857 0.14478768 0.016864534 -0.05358129 -0.06049792 -0.033705246 0.07343218 -0.08655529 0.10841172 0.0068432223 -0.15099189 -0.06868532 0.05974515 0.18299596 0.11328799 0.08864466 0.08939865 0.0025635064 -0.083779484 0.004019949 -0.10761311 -0.14022668
108 -0.026713962 0.0047918684 -0.04744209 -0.02944177 -0.007773019 0.1947654 0.07740642 0.12607354 0.009052773 0.012897632 0.25866517 0.19402438 0.021485923 -0.043776575 -0.060104694 -0.003876028 0.08195267 -0.139853 0.1883854 -0.019507924 -0.1917505 -0.11640631 0.09290203 0.26508918 0.16166687 0.12403039 0.15196429 -0.027983524 -0.10172643 0.0064942976 -0.14236635 -0.1639509
109 -0.028010752 -0.018051779 -0.052061304 -0.037895817 -0.01628479 0.21337718 0.09719638 0.15225783 0.032412574 0.008579429 0.26590455 0.22149748 0.022212299 -0.05020771 -0.035081945 -0.008234386 0.10583648 -0.14914289 0.20454107 0.0016928973 -0.23603144 -0.10703501 0.07204616 0.2820412 0.16440278 0.15119047 0.17030266 -0.029795412 -0.106069356 -0.0015492808 -0.17598073 -0.195109
110 -0.022799812 -0.0021285773 -0.021087015 -0.03451419 0.005323181 0.16145568 0.043777898 0.10107756 0.016158184 0.0077964957 0.20217723 0.14002998 0.0038799532 0.0050404877 -0.017861936 0.0073222998 0.05968818 -0.09611489 0.103892095 -0.00087187026 -0.17579283 -0.05603667 0.034534816 0.17655312 0.119775526 0.10276815 0.10819794 0.0012626108 -0.09093812 -0.0004843209 -0.11201028 -0.14048246
111 -0.015039794 -0.019359518 -0.052437678 -0.043069564 -0.010628599 0.19932951 0.087058455 0.12986715 0.008887476 -0.0022612927 0.26590466 0.19489737 0.0010601808 -0.022785239 -0.04375398 -0.015144102 0.060405944 -0.14482225 0.15031348 -0.013520025 -0.22492725 -0.11244112 0.088889435 0.25205752 0.162925 0.121889964 0.1444834 0.0031554103 -0.09869687 0.010411866 -0.16279158 -0.16128023
112 -0.042882968 -0.012295018 -0.042261142 -0.011665087 0.0016377157 0.18937048 0.08618935 0.11138237 0.043724414 0.0073761935 0.24853429 0.20478344 0.009890605 -0.02807254 -0.039830614 0.003456564 0.07745787 -0.13009351 0.16430947 -0.008828087 -0.19612023 -0.09088249 0.04893811 0.24338374 0.17149773 0.11307118 0.14261904 -0.010079449 -0.11394316 -0.0026903294 -0.15378202 -0.17700195
113 -0.0068888017 -0.023016209 -0.034088563 -0.03399655 0.016281366 0.1399283 0.039849658 0.09761408 0.030660106 0.007760225 0.17294033 0.12105777 0.010736407 -0.0042712125 -0.027810551 -0.0146226045 0.053554855 -0.07793027 0.10818519 -0.0034096367 -0.13348757 -0.05447559 0.04750634 0.16567816 0.12662412 0.08771607 0.11382974 -0.014401497 -0.053879626 -0.0067433706 -0.0984967 -0.11778786
114 -0.02854197 -0.018473648 -0.02386873 -0.022556636 -0.0057524806 0.16427521 0.06324771 0.09741079 0.022292163 0.014023755 0.20953988 0.17166825 0.010573399 -0.02260311 -0.028721284 0.020119471 0.071386896 -0.09569035 0.13665588 -0.008964936 -0.17499116 -0.0665294 0.07004732 0.1889115 0.12626466 0.105455086 0.13913186 -0.01800246 -0.0794365 0.013832845 -0.116215356 -0.15399817
115 -0.038090575 -0.016668545 -0.05085883 -0.020889517 0.004195366 0.18816166 0.04974784 0.11305873 0.029218776 -0.0005592126 0.22149776 0.18144894 0.030581912 -0.046844073 -0.031277966 -0.016161073 0.08531913 -0.12676227 0.14689338 0.010024369 -0.18983763 -0.1032597 0.054285325 0.2338692 0.1584824 0.12702192 0.13406435 -0.023125965 -0.08829712 -0.019957008 -0.12858538 -0.17184372
116 -0.008134864 -0.015663594 -0.023568777 -0.027796848 0.011078176 0.15709013 0.062127385 0.11424067 0.01879702 0.017960876 0.19810133 0.14560111 0.0073320772 -0.052276477 -0.05053451 -0.0059472164 0.080001995 -0.115212284 0.11819334 -0.00827295 -0.1576811 -0.08573188 0.059354816 0.19397865 0.12407967 0.10526377 0.10087282 -0.02154147 -0.10403061 -0.008707522 -0.14144896 -0.14710309
117 -0.03866811 0.0053984965 -0.036301486 -0.048984945 -0.013058635 0.17459418 0.063267455 0.10660877 0.009657709 0.0007832157 0.18495691 0.15276253 0.007008389 -0.042989116 -0.03495667 -0.010914991 0.07337817 -0.120640725 0.14875439 -0.012044159 -0.17556015 -0.091372125 0.070400104 0.21974802 0.12961505 0.08915042 0.10190109 -0.003044616 -0.055628225 -0.01056586 -0.11739353 -0.14596616
118 -0.053218402 0.004014925 -0.05348713 -0.019642761 -0.019355994 0.20257902 0.09103671 0.13466184 0.037103307 -0.002793989 0.23545447 0.20317535 0.0029093234 -0.032453056 -0.0284918 -0.034993473 0.09380428 -0.12584959 0.15638213 -0.019599054 -0.20833762 -0.1145317 0.07629354 0.25766915 0.17143072 0.113083266 0.15050925 -0.0017347508 -0.077387325 -0.010607691 -0.14000039 -0.18246377
119 -0.025880212 0.0018069589 -0.028210666 -0.03927192 -0.016181072 0.15677539 0.07679361 0.10151485 0.016590003 0.0020216273 0.20559722 0.14545178 0.0063987253 -0.032288276 -0.032426283 -0.003816324 0.06273755 -0.08647473 0.123904146 -0.0015816215 -0.16761406 -0.06743356 0.053563524 0.19097693 0.11565135 0.09451497 0.12964503 0.0021636947 -0.07628571 0.008073979 -0.10925446 -0.13375376
120 -0.013528755 0.0020905086 -0.02827853 -0.056565944 -0.013906848 0.1967927 0.06840467 0.12013129 0.025614692 -0.005233358 0.23238742 0.15231481 -0.0045792335 -0.0009151983 -0.028464159 -0.012652229 0.04369048 -0.11317003 0.1255079 -0.01980073 -0.19245031 -0.095349565 0.073946565 0.21020976 0.12917349 0.07514629 0.13243382 0.013316255 -0.053351328 -0.017670307 -0.12852952 -0.14591594
121 -0.016155794 -0.02876038 -0.044182893 -0.017391777 -0.0200147 0.1557797 0.042787418 0.11340627 0.02614079 0.015242822 0.18924545 0.14090267 0.019059574 -0.037250914 -0.049861554 0.00028002894 0.048984393 -0.1054368 0.11503943 0.003933385 -0.15536408 -0.06524925 0.06698683 0.17688255 0.10418259 0.08574417 0.11914266 -0.020376598 -0.08149898 0.010575352 -0.13138986 -0.11424348
122 -0.027204 0.0053272704 -0.048674777 -0.029298695 0.013639654 0.21153903 0.09723323 0.118306555 0.034506615 0.0058826236 0.2652831 0.17561744 0.009506191 -0.019764908 -0.029594373 -0.004579298 0.075560436 -0.1344792 0.17535003 -0.02244263 -0.23042573 -0.1020482 0.08779254 0.25024524 0.16089338 0.1046478 0.16047662 -0.011427338 -0.093064755 -0.011112049 -0.14207883 -0.17967625
123 -0.025452228 -0.020942869 -0.039874453 -0.037315145 -0.023408573 0.19104424 0.09009143 0.12686208 0.03031375 -0.014765652 0.23478562 0.1890178 0.0065310323 -0.025438104 -0.055331048 -0.0012473158 0.065266006 -0.13010287 0.16159044 0.006430644 -0.21535961 -0.10119927 0.090348646 0.25585514 0.15916863 0.07852007 0.15682353 -0.0037924775 -0.081146285 0.00100611 -0.12872243 -0.16916417
124 -0.031895213 0.013444299 -0.031748008 -0.036088437 -0.0063543823 0.17653213 0.06534508 0.114381775 0.031672776 -0.020972885 0.19437067 0.16606237 0.0031280394 -0.025110532 -0.009688583 -0.013176259 0.06883436 -0.10577507 0.15763609 -0.0060727266 -0.19217351 -0.08882678 0.07488868 0.21741594 0.11893722 0.081645064 0.12337836 -0.010479792 -0.062051684 -0.021580558 -0.10513921 -0.1396281
125 -0.022981098 -0.022502296 -0.027162785 -0.03507414 -0.013509671 0.19941261 0.07079749 0.12399055 0.0023404963 0.00031348882 0.24035543 0.1716237 0.014333379 -0.04077903 -0.05756158 0.004908543 0.0666618 -0.122029595 0.15196535 0.0030127512 -0.17754136 -0.092787825 0.05886975 0.21926267 0.13192217 0.118058026 0.1598692 -0.019198349 -0.09645858 0.009783365 -0.13907798 -0.15086241
126 -0.029182972 -0.020441951 -0.028445225 -0.026712243 0.0119264545 0.18308459 0.07327178 0.12552185 0.007827747 0.0052101137 0.23814096 0.15802595 -0.006427088 -0.021781249 -0.026776005 -0.0038213688 0.06797582 -0.11832034 0.15741268 -0.020496469 -0.19118792 -0.09490902 0.06343593 0.21492428 0.13224778 0.104601406 0.13844112 -0.0047428776 -0.06399667 0.0003939633 -0.122909464 -0.14330347
127 -0.039976873 0.0023848368 -0.03921621 -0.011658237 -0.018245224 0.19798732 0.0763237 0.11674027 0.009756077 0.0004754862 0.23349857 0.20201442 0.014341023 -0.044075623 -0.030071918 0.005085496 0.08650595 -0.12781775 0.1622728 -0.015048357 -0.1899029 -0.11085941 0.07707259 0.21321377 0.12921508 0.11437927 0.1609619 -0.021190913 -0.08198064 -0.006404116 -0.13738179 -0.15713324
128 -0.045841828 0.0028145553 -0.05843107 -0.029352799 -0.0075576585 0.1790676 0.09156834 0.14175189 0.023674993 -0.010539526 0.24102549 0.18704368 0.016173823 -0.05320918 -0.05847046 -0.0429351 0.087736 -0.1419395 0.16792946 -0.0001237245 -0.20432566 -0.091350585 0.065113656 0.2668943 0.1425945 0.121121556 0.14269115 -0.0147346845 -0.08771424 -0.0029225445 -0.14870498 -0.17229858
129 -0.037301403 0.016304173 -0.032106455 -0.023726424 0.00045045494 0.17668489 0.10151008 0.11926002 0.022991246 -0.010128984 0.23529163 0.16591652 0.0051998473 -0.031386517 -0.04574619 -0.038918436 0.06853516 -0.13842286 0.14810196 -0.017656514 -0.18966803 -0.107996665 0.05932253 0.22516523 0.14348088 0.11288622 0.11810624 0.008305201 -0.078261614 -0.023740502 -0.12236162 -0.17822786
130 -0.022410767 -0.019690515 -0.022008114 -0.021441681 0.0073650554 0.18535654 0.060589265 0.1406161 0.031506855 0.031672947 0.23203424 0.216064 0.0035412817 -0.015510295 -0.038972843 0.0013464459 0.073160574 -0.12987834 0.14874785 0.018475704 -0.2038072 -0.09501495 0.058872238 0.22705418 0.16767885 0.13524282 0.13738872 -0.008276505 -0.118397646 0.031821743 -0.15565547 -0.1660816
131 -0.036987636 -0.014449109 -0.02443907 -0.021058476 0.008253294 0.14886928 0.05980673 0.108839326 0.029151583 -0.0067089135 0.18263926 0.16677988 -0.0033688736 -0.0065671057 -0.033691082 -0.0035246117 0.066260144 -0.11947675 0.11520885 0.0012932736 -0.17763454 -0.08099602 0.071111344 0.2170739 0.1263028 0.08957928 0.113503024 -0.017652433 -0.07522628 0.003209895 -0.12608293 -0.14441359
132 -0.02120647 -0.01572117 -0.04146412 -0.030499965 -0.008290903 0.18058364 0.06006259 0.11738219 0.03649502 0.0025284593 0.19410084 0.15649074 -0.0011492212 -0.018573282 -0.016354583 -0.01226445 0.07955718 -0.1369032 0.15710333 0.0040570027 -0.20336118 -0.08863824 0.068739735 0.23836866 0.14619984 0.08680666 0.116322316 -0.023418969 -0.060788527 -0.008935559 -0.124243155 -0.13704582
133 -0.02824568 0.007850297 -0.015722856 -0.018605236 -0.002767198 0.13821813 0.07178264 0.10098571 0.028013093 -0.0027955095 0.19279851 0.12687314 0.017988844 0.0028667971 -0.026613439 -0.030768806 0.08108806 -0.09435692 0.13732417 -0.0121342065 -0.17593493 -0.07153755 0.042729504 0.20735873 0.126784 0.08037997 0.104339294 0.006627704 -0.08091449 -0.017581942 -0.11016545 -0.13638777
134 -0.03825158 -0.021725023 -0.037789453 -0.041518126 -0.009859393 0.18549581 0.055987965 0.12074502 -0.00044575628 0.010887344 0.20396705 0.15516111 -0.0019361288 -0.046113297 -0.047139645 -0.004869894 0.060729172 -0.10468435 0.13274768 0.007118265 -0.17122214 -0.101213805 0.08243501 0.2062951 0.1283745 0.07330174 0.12652925 -0.01562172 -0.07727361 -0.009313063 -0.1054365 -0.12965915
135 -0.025176316 -0.020375866 -0.04728746 -0.057468902 -0.015131641 0.18402484 0.06307362 0.12092 0.027207823 0.015081637 0.22780849 0.17414728 -0.004827961 -0.03302148 -0.03856857 -0.004156424 0.058908552 -0.10718512 0.154127 0.008578735 -0.17866041 -0.11709109 0.08759738 0.21021813 0.115981184 0.08750772 0.12052891 -0.027842859 -0.096404485 0.022088144 -0.13503908 -0.14440696
136 -0.012897555 -0.009321367 -0.001054938 -0.034243457 0.014580884 0.21257146 0.07159338 0.13574539 0.03886799 0.025483986 0.25795674 0.17958306 0.022099072 0.016543783 -0.03826752 0.026743881 0.07465385 -0.12987772 0.14086506 -0.008724784 -0.22272545 -0.07701579 0.036639202 0.24005195 0.17221971 0.13931793 0.1475769 -0.024189966 -0.10569724 0.0142194405 -0.17341788 -0.16049607
137 -0.042579338 -0.022888089 -0.057874396 -0.02392449 -0.0049661393 0.20073709 0.06154786 0.12722884 0.0071371314 0.0026574782 0.2411026 0.1946189 0.019694857 -0.04718582 -0.035953864 -0.010874237 0.08860489 -0.1441545 0.16543737 -0.009763036 -0.2040602 -0.12261123 0.091445975 0.25137174 0.1510116 0.089457646 0.16073665 -0.025149988 -0.09070557 -0.0014868769 -0.14974761 -0.16967152
138 -0.035030466 -0.006730222 -0.028604781 -0.007561535 0.010062953 0.16325653 0.058931038 0.11186994 0.018788237 -0.00034802154 0.21137536 0.1686681 0.019351976 -0.03219 -0.023116346 0.0059597474 0.08639837 -0.1350552 0.14660725 -0.0018194976 -0.20268066 -0.09929698 0.045906674 0.22090583 0.13772647 0.12857674 0.12499263 -0.0075674956 -0.079162866 0.020618008 -0.15171304 -0.16502146
139 -0.03739464 0.0076850816 -0.03206187 -0.02682554 0.010602809 0.21970493 0.08584864 0.12063165 0.031073371 0.011617751 0.2758542 0.18484724 0.01798057 -0.010709618 -0.04767328 -0.009868563 0.08213177 -0.14580473 0.18069261 0.0002139205 -0.24822815 -0.099419 0.057454616 0.24554333 0.17206466 0.13064794 0.17095037 -0.01193099 -0.096037365 -0.01400692 -0.14706944 -0.18839478
140 -0.033946656 -0.00031775027 -0.02042199 -0.006351854 0.004350212 0.18027705 0.07809041 0.12633495 0.026799217 0.016739927 0.2512108 0.17437263 0.02711456 -0.002892499 -0.040735155 0.014962234 0.08086794 -0.1291392 0.13925116 0.00448066 -0.21386264 -0.09214224 0.057360597 0.22538531 0.16320251 0.13251574 0.1398036 -0.014792139 -0.10125154 0.010361506 -0.15198752 -0.14595011
141 -0.03903316 0.012006964 -0.016582508 -0.00086957397 0.009458212 0.17576523 0.056481462 0.111928865 0.041327495 0.0033973942 0.22379854 0.16113472 0.026199348 -0.03239387 -0.013588325 -0.036410075 0.087948814 -0.11844994 0.15933543 -0.013633385 -0.1998458 -0.09045207 0.0542322 0.24295714 0.15313639 0.09470576 0.13283937 -0.007729915 -0.08751834 -0.030480739 -0.12313659 -0.16124722
142 -0.05537954 0.0029071223 -0.01983622 -0.041456398 -0.002010768 0.20731239 0.084546074 0.12511964 0.03684229 -0.015362667 0.24137388 0.18468425 0.013558389 -0.014942257 -0.04596003 -0.010909429 0.06748323 -0.12400514 0.15048681 -0.006132495 -0.21407379 -0.11354036 0.082241 0.23399137 0.1505242 0.118155636 0.16980079 0.002106743 -0.08453745 -0.010705687 -0.12889946 -0.16709019
143 -0.02698746 -0.0069886935 -0.035906516 -0.040946487 -0.001790324 0.15540068 0.06866006 0.100094035 0.01434113 0.0066602556 0.17419504 0.15563132 0.010696801 -0.049777955 -0.04179333 -0.0024091231 0.07304271 -0.11044847 0.12735018 -0.0016750635 -0.1564797 -0.09040834 0.079558246 0.20491377 0.124157175 0.07234806 0.113396786 -0.025051987 -0.085280925 -0.021243915 -0.12015155 -0.130474
144 -0.035605393 0.002490441 -0.026859624 0.00080514903 -0.009314017 0.19034888 0.06421716 0.09921015 0.012613706 0.012682681 0.23293325 0.19671154 0.0065155285 -0.018972773 -0.030531997 0.012250908 0.0819701 -0.13162223 0.15657735 -0.008577259 -0.20058799 -0.093722045 0.060566653 0.22650233 0.14341098 0.11144097 0.13162817 -0.024800574 -0.0857908 0.022765063 -0.12734343 -0.15042195
145 -0.0075715682 -0.027000435 -0.045413867 -0.05223501 -0.014440868 0.19278878 0.056885853 0.13996579 -0.010202618 -0.0052827476 0.23557922 0.17858154 0.008859208 -0.0483825 -0.045721214 0.02976806 0.07706959 -0.12956081 0.14804684 -0.0069435826 -0.18995623 -0.09766363 0.09916353 0.2334124 0.12909162 0.104263574 0.14754076 -0.019210888 -0.09651093 0.016598912 -0.14309074 -0.13469397
146 -0.014609741 -0.0022189794 -0.0202175 -0.0074710087 0.012208238 0.17204393 0.067484856 0.11809525 0.024129761 0.01931076 0.22610934 0.16332345 0.0063565015 -0.015398297 -0.023377018 -0.0077053574 0.0665437 -0.104794145 0.13778147 -0.010443556 -0.18277724 -0.06102841 0.041952148 0.22809957 0.15624142 0.10792088 0.111745514 -0.021579932 -0.08844202 0.01509004 -0.14390466 -0.16594025
147 -0.04011768 -0.009188689 -0.03597082 -0.029394943 0.013280186 0.17796777 0.06665199 0.11476225 0.041129094 -0.011651851 0.20125176 0.14958888 0.01794002 -0.043472588 -0.05472422 -0.006854458 0.07104319 -0.11452915 0.15234993 -0.0018365574 -0.17248167 -0.08074031 0.06459585 0.22960867 0.12946552 0.0930418 0.12727596 0.0055084373 -0.08523969 -0.00030945565 -0.12204183 -0.16297169
148 -0.020907808 -0.012276739 -0.027398413 -0.023794962 -0.004550454 0.16488297 0.0829354 0.11489544 0.025651522 -0.0058564967 0.19981447 0.14909801 0.003208977 0.000932417 -0.03408861 0.010088554 0.06306402 -0.10380435 0.15049607 -0.013632796 -0.16854338 -0.06418114 0.04207592 0.21994898 0.14790691 0.09232803 0.1440961 -0.01931768 -0.079802595 0.009597448 -0.14703947 -0.1567847
149 -0.02775914 0.015214684 -0.027937133 -0.031611152 0.0102287 0.14173028 0.06808432 0.090431616 0.016366204 0.012720193 0.20745488 0.148875 -0.00924952 -0.01093926 -0.038038332 -0.00945992 0.062237624 -0.10006542 0.13446495 -0.017209588 -0.17344283 -0.084100604 0.06515839 0.1992382 0.13690013 0.095477 0.12200018 -0.0065912404 -0.059003446 -0.020374142 -0.11449134 -0.15323137
150 -0.020061826 -0.011818415 -0.03921125 -0.031281944 -0.00057855755 0.20056449 0.06696491 0.14071266 0.01207704 0.01220337 0.24434951 0.20169535 0.0007754102 -0.014293094 -0.045091107 -0.0037091684 0.09072675 -0.13889775 0.15320708 -0.016389366 -0.2091323 -0.10163946 0.085737586 0.24888481 0.16571505 0.11881759 0.15360603 -0.007187631 -0.10856618 0.006937559 -0.14889833 -0.16741505
151 -0.04945027 -0.0021343715 -0.029445587 -0.0088922065 -0.005108718 0.1767755 0.09711091 0.10812267 0.03637088 -0.00093919167 0.24255441 0.17893548 0.015718943 -0.024402365 -0.034918956 -0.009944403 0.09205991 -0.11888959 0.15568244 -0.010436135 -0.20675454 -0.08652123 0.035304364 0.260209 0.16041365 0.10958341 0.14427307 0.007619566 -0.07716356 -0.008698741 -0.12895715 -0.18672934
152 -0.026870096 -0.020326434 -0.0325018 -0.009495261 -0.0069605247 0.18456945 0.08032502 0.096193045 0.036989234 -0.0070485324 0.22373436 0.16445264 0.017478764 -0.027455075 -0.033218198 -0.008269078 0.077918656 -0.12340808 0.13733268 0.011673569 -0.18806009 -0.09799251 0.045041166 0.21543421 0.15883358 0.09372688 0.1362463 -0.002713162 -0.08009171 -0.017895397 -0.123130225 -0.15055424
153 -0.012919979 0.006921344 -0.0268081 -0.025075164 0.0009576732 0.14298804 0.058450982 0.097934894 0.028069867 -0.009010123 0.20225461 0.15846768 -0.0003041158 -0.03592146 -0.039778557 -0.0072347415 0.05729098 -0.09506559 0.110627025 -0.0029532185 -0.15004836 -0.07242068 0.04929368 0.1959678 0.10427183 0.087532856 0.11478297 0.004897383 -0.06870571 0.0050501944 -0.123639725 -0.1154542
154 -0.02646213 -0.0011577287 -0.0059061716 -0.0137557285 0.0015220176 0.17592932 0.07823219 0.11070252 0.034040365 0.013547686 0.21198148 0.18740793 0.022622786 0.013478026 -0.031546373 0.011534326 0.08188144 -0.10181417 0.14067575 -0.008671051 -0.21098909 -0.064724855 0.037947483 0.21475627 0.15596303 0.13672005 0.13789052 0.018291947 -0.06018019 0.024642488 -0.12349978 -0.172988
155 -0.024199756 -0.008700406 -0.03588388 -0.032882124 0.0051302384 0.19772938 0.080977686 0.13603581 0.026984736 0.026777733 0.2690419 0.21991004 0.012668552 -0.02606366 -0.0514301 -0.023654005 0.07011859 -0.118728355 0.15009856 0.0010381604 -0.21441649 -0.09077891 0.071883194 0.25771707 0.17863876 0.11849213 0.15944006 -0.000933135 -0.11752581 0.03300373 -0.15147412 -0.16788413
156 -0.0453999 0.011769697 -0.008078461 -0.014726992 -0.00070091704 0.17907417 0.09590316 0.1215109 0.038398646 -0.013435903 0.26138464 0.1711431 0.021323722 -0.0064913547 -0.025732357 -0.028084897 0.06302694 -0.15443856 0.15641576 -0.027478196 -0.23391259 -0.08585066 0.043506633 0.24927849 0.15623243 0.10877423 0.17658843 0.012858971 -0.07881487 -0.033452272 -0.1610441 -0.19157763
157 -0.031312354 -0.0053161266 -0.049604222 -0.054817833 0.0067383735 0.21294242 0.0909288 0.15012416 0.01646679 0.009132799 0.26683584 0.21173224 0.01890607 -0.043582883 -0.03290035 -0.0041345586 0.08949469 -0.15263332 0.18668416 0.0054704365 -0.2362485 -0.12583347 0.071969084 0.2594812 0.1720711 0.112918325 0.17231303 -0.019564407 -0.097158946 -0.01766337 -0.17295058 -0.18214516
158 -0.027490927 -0.011539639 -0.06790057 -0.0636739 -0.029773954 0.2436956 0.10465427 0.16133736 9.304601e-05 0.0014665382 0.29503867 0.21054246 0.0012559007 -0.070828825 -0.048560664 0.010616383 0.08849245 -0.16480754 0.18948132 -0.00095162645 -0.23685393 -0.14801073 0.13093148 0.2835297 0.1496889 0.10589301 0.18260914 -0.024692366 -0.08341398 -0.005228203 -0.15813728 -0.17929918
159 -0.023680061 0.010584746 -0.037972327 -0.033111382 0.015397737 0.18552135 0.088316895 0.10170498 0.02317782 -0.00842567 0.2451293 0.16120589 0.01942575 -0.02706961 -0.027033465 -0.024166113 0.060135614 -0.111597724 0.15968679 0.0027950024 -0.21668552 -0.100869246 0.069585554 0.2385124 0.14549479 0.09672268 0.13794947 0.011009499 -0.07360808 -0.013974734 -0.12623097 -0.17647819
160 -0.021347014 0.0015582542 -0.033790927 -0.031835657 0.0018394168 0.16537558 0.06138017 0.121482365 0.013052471 0.021676749 0.22960049 0.1725956 -0.00012437369 -0.019605795 -0.031184519 -0.0041639535 0.066710316 -0.10553456 0.1397014 -0.00041002117 -0.17924052 -0.09597699 0.063072294 0.20708215 0.13897386 0.10886784 0.12948091 -0.0055227666 -0.07432151 0.0026464758 -0.116436 -0.14651412
161 -0.029359251 -0.00088176125 -0.027191253 -0.02576045 0.014206755 0.16764289 0.08099029 0.11330579 0.04746413 -0.0023527641 0.23061784 0.18136913 0.012238711 -0.0024959357 -0.023720052 -0.00611269 0.07649751 -0.14007354 0.16080599 -0.008625246 -0.21672526 -0.086502336 0.026126957 0.24715693 0.1703428 0.12628753 0.14023174 -0.024709258 -0.10627109 0.02342073 -0.15974711 -0.18076834
162 -0.034721162 0.0016797027 -0.04767659 -0.02577153 -2.8334878e-05 0.1751509 0.07234071 0.111124456 0.030056274 0.012149202 0.22665009 0.14924347 0.0091363285 -0.025144493 -0.030129492 -0.016268855 0.060709786 -0.11181612 0.13334182 -0.0032399877 -0.21354456 -0.10147838 0.06606273 0.23760846 0.1486814 0.09291539 0.12712644 -0.0013853462 -0.07324962 -0.011278071 -0.12623432 -0.15980905
163 -0.042224992 0.007981553 -0.030775733 0.0016189484 0.012470225 0.13796853 0.052521132 0.091934845 0.018593317 -0.0020553027 0.19147643 0.13683268 0.0052285483 0.0036855456 -0.03983025 -0.011313469 0.0524553 -0.1021612 0.10489702 -0.006326022 -0.17997283 -0.079270184 0.0477843 0.20123582 0.12651002 0.10511682 0.11789852 0.001172363 -0.07330538 0.0036117937 -0.12039561 -0.14970952
164 -0.04534354 -0.009863534 -0.03723644 -0.031988233 0.016183214 0.18401456 0.08431939 0.13180655 0.045116566 -0.013982248 0.26589355 0.1705717 0.027307613 0.0012020243 -0.02620934 -0.017192079 0.06524304 -0.1313368 0.15846974 -0.010206086 -0.22036932 -0.08744744 0.04747456 0.24627459 0.15947875 0.11632715 0.14175366 0.008298032 -0.08897304 -0.010005213 -0.14415915 -0.17661415
165 -0.008539317 -0.00043926755 -0.05242624 -0.036089092 -0.019371629 0.19509064 0.042711902 0.11561894 0.010746465 0.0009868229 0.19838431 0.17525391 0.015982348 -0.052273557 -0.046199724 0.0014558901 0.058931105 -0.13627745 0.13570358 0.010279157 -0.1881678 -0.09686557 0.071788326 0.23095864 0.13930811 0.114134535 0.13482577 -0.03940283 -0.08529015 0.008192386 -0.1482578 -0.1428267
166 -0.031813573 -0.008768269 -0.026226623 -0.039840747 0.0038994509 0.16400905 0.04048466 0.08287925 0.01652753 -0.007255771 0.18746167 0.15678869 0.007185852 -0.024056742 -0.029336642 0.009281837 0.039819222 -0.088491976 0.12150549 0.01608011 -0.17200485 -0.06433775 0.04753818 0.18260632 0.106895804 0.08359292 0.110674754 -0.01788647 -0.073283315 -0.0050694714 -0.11139803 -0.11223109
167 -0.02575528 -0.008468936 -0.05390772 -0.036117606 -0.026463367 0.2167744 0.08239002 0.16078971 0.024026368 -0.007357047 0.2675434 0.18674922 0.001896436 -0.05543025 -0.05781639 -0.032644797 0.090898976 -0.16378416 0.18574221 0.0072942837 -0.21695131 -0.1270766 0.12097344 0.28311485 0.1489548 0.1050346 0.14085923 -0.0125588495 -0.08382642 -0.024028225 -0.1357365 -0.17910896
168 -0.033243008 0.012453126 -0.039001744 -0.036324255 -0.012961813 0.16012806 0.05796521 0.11645043 0.03827806 0.027231973 0.20588641 0.16120432 -0.0051481705 -0.01830414 -0.025263008 -0.026510336 0.05758306 -0.101052836 0.119767286 -0.008245293 -0.18387647 -0.08458245 0.04466734 0.19576064 0.15398549 0.10047563 0.13223791 0.0104462635 -0.09596024 0.004709868 -0.14823847 -0.15175708
169 -0.034896307 0.0065193623 -0.038081057 -0.020440383 0.015411104 0.1714369 0.093154214 0.122362904 0.029659254 -0.02155156 0.2258956 0.14105396 -0.004294457 -0.02791944 -0.04330019 -0.041261204 0.05892897 -0.10925466 0.14508349 -0.0137185035 -0.17403533 -0.08486993 0.05166006 0.21978647 0.12671974 0.09380791 0.12786597 -0.015563965 -0.065015085 -0.017898627 -0.13567795 -0.1505224
170 -0.023127276 0.0054825586 -0.044178016 -0.026708495 -0.002641353 0.18375613 0.069707125 0.12094911 0.022272276 0.012342601 0.22324497 0.18774906 0.015511991 -0.013693141 -0.041756283 0.0016943264 0.09746643 -0.13801177 0.16458392 -0.012206345 -0.19378735 -0.083022 0.04345932 0.23564462 0.16010752 0.14657405 0.13436781 -0.029765572 -0.10954086 0.020653408 -0.16450104 -0.1489903
171 -0.026179945 -0.017857898 -0.03576344 -0.048051253 -0.013466208 0.18407302 0.070386104 0.10574322 0.036055986 -0.0055938787 0.23943539 0.15994059 0.007301086 -0.042360865 -0.020736206 -0.0022226349 0.058263816 -0.12101363 0.16569552 -0.017061932 -0.21132016 -0.11419459 0.085900635 0.22601555 0.14976342 0.10757455 0.15668274 -0.0003039431 -0.08034522 -7.3209885e-05 -0.13513985 -0.16691126
172 -0.022093644 -0.025782663 -0.023770545 -0.014577513 -0.00094702427 0.17372291 0.05205762 0.122375526 0.015328663 0.008951115 0.21222147 0.19262621 0.017730433 -0.014110842 -0.036947135 0.009752768 0.05694886 -0.10670124 0.13428582 -0.009952992 -0.1901798 -0.09055907 0.06456164 0.20880088 0.16037875 0.11963501 0.1467545 -0.0005848532 -0.09070867 0.003105011 -0.12868321 -0.15485087
173 -0.037183955 -0.0150147835 -0.027429985 -0.010166271 -0.007462177 0.13657275 0.067066684 0.09029291 0.039550073 0.008674915 0.20413604 0.1532747 0.010941484 -0.010609916 -0.0063034184 -0.01812418 0.06259426 -0.09929585 0.12884745 0.0050757397 -0.17889401 -0.060166195 0.038086005 0.22085924 0.13522142 0.11296729 0.13874358 -0.0005985079 -0.07082562 -0.0028101404 -0.12259202 -0.14359483
174 -0.041495394 -0.0040945904 -0.027852088 -0.012128638 0.011790635 0.19137548 0.073277526 0.12847264 0.017840842 -0.0073318463 0.20737994 0.16467172 0.006443429 -0.017602403 -0.014048269 -0.005665645 0.06155875 -0.1388061 0.15867394 -0.0048975833 -0.2013083 -0.1038681 0.047323707 0.23840079 0.15250625 0.10244442 0.14447008 -0.0022862137 -0.06310365 -0.017369565 -0.14278583 -0.14723967
175 -0.017712818 -0.020814609 -0.011135661 -0.019082012 -0.01464575 0.17199165 0.057336416 0.12762891 0.038255177 0.02447325 0.22968231 0.17888749 0.005855691 -0.015791278 -0.025729239 0.0016527231 0.050390087 -0.104694046 0.124150604 0.0025063287 -0.19490796 -0.073633 0.05294192 0.20497003 0.14496382 0.10066352 0.14492337 -0.022548238 -0.093731344 0.025599713 -0.15328223 -0.16240169
176 -0.058862127 0.0048028976 -0.038940087 -0.02016189 0.0035519747 0.20555566 0.082016215 0.12465784 0.046715915 0.01407269 0.2710543 0.19912507 0.030212654 -0.04305613 -0.03986852 0.0035645405 0.08713681 -0.15444179 0.1812042 -0.001413723 -0.24901836 -0.10675235 0.05815011 0.26889655 0.16912231 0.13548662 0.17875744 -0.018157277 -0.101078585 -0.009074231 -0.17079957 -0.18392104
177 -0.032534245 -0.012954631 -0.06077633 -0.05111977 -0.0076854266 0.19728637 0.10593014 0.125738 0.02331024 -0.012232251 0.27088884 0.17397624 0.015177093 -0.060105283 -0.036744334 -0.032536592 0.060391944 -0.1452962 0.17959552 -0.01932542 -0.21909367 -0.14266106 0.091613 0.26867965 0.12943201 0.09524471 0.1553055 -0.012076622 -0.07899322 -0.014633314 -0.1368364 -0.17332575
178 -0.0042497185 -0.0069223624 -0.040435486 -0.037782706 0.006330861 0.15939946 0.046851028 0.12327046 0.036499903 0.014884486 0.21264999 0.17193367 0.0047310637 -0.007871729 -0.056340486 -0.010585907 0.0801074 -0.10611324 0.13086888 -0.0052861203 -0.17551479 -0.070964664 0.06369708 0.23114648 0.14349347 0.11224125 0.10974571 -0.031529706 -0.11782743 0.0069424473 -0.15333608 -0.14482217
179 -0.043751474 -0.0073049334 -0.037031855 -0.035031788 -0.004060344 0.17750219 0.07250506 0.11567509 0.0056135273 0.014485511 0.23333274 0.17398913 -0.0029777205 -0.030283837 -0.0365109 -0.011158558 0.05996276 -0.10687729 0.13995624 -0.011014623 -0.17749868 -0.10303713 0.08014057 0.20140871 0.13666177 0.08515338 0.14650744 0.013032437 -0.07247423 0.020217482 -0.13785712 -0.1495436
180 -0.027669197 -0.010561919 -0.037790123 -0.03807752 0.016677447 0.1929106 0.06536603 0.12904717 0.03095597 -0.0012757946 0.2765792 0.19235921 0.00022191629 -0.0062963315 -0.035262145 -0.014528908 0.09423852 -0.13671935 0.16454457 0.011843237 -0.22252177 -0.11099089 0.05661535 0.26228508 0.16144922 0.12134539 0.15921007 -0.009894615 -0.1058549 0.0004874994 -0.15897545 -0.17084034
181 -0.017562948 0.008600243 -0.008727558 0.009133766 0.017303558 0.13695772 0.072971255 0.10560924 0.022854041 -0.0007821344 0.1724541 0.14492992 0.014465999 -0.012202781 -0.01622012 -0.0036102273 0.08395248 -0.1251436 0.14334525 -0.009747321 -0.16187006 -0.05656867 0.017103113 0.21319641 0.12912966 0.122720614 0.107467435 -0.016779725 -0.09069938 -0.0016077389 -0.130194 -0.15066019
182 -0.04567696 -0.0049280217 -0.0208537 -0.026298003 0.025205368 0.20684557 0.08852739 0.14200875 0.05516247 -0.007243406 0.28336444 0.16516948 0.0029802776 -0.020193193 -0.046035092 -0.017868107 0.10213689 -0.16313751 0.16783082 -0.02422917 -0.23833029 -0.09978379 0.05751043 0.27816576 0.17803144 0.13738449 0.14773045 -0.02335696 -0.106930554 -0.041257586 -0.18567075 -0.19076957
183 -0.037489824 -0.013873048 -0.037631746 -0.023157325 -0.010707979 0.15588307 0.06796681 0.10155192 0.021359118 -0.004251397 0.18789911 0.16952646 0.0016676737 -0.019700086 -0.040222332 -0.020024616 0.072435334 -0.11292386 0.1330889 0.010989386 -0.16354297 -0.07489006 0.07246644 0.19043909 0.13062187 0.08891182 0.12165885 -0.016736602 -0.09143055 0.016638504 -0.114221394 -0.1235813
184 -0.035790797 0.004761405 -0.011916292 -0.014431892 -0.0015172779 0.16616653 0.08103888 0.09882476 0.033753745 -8.9029054e-05 0.22521524 0.1675044 0.008039195 0.007723559 -0.04514862 -0.016063772 0.078012034 -0.10265547 0.13574958 -0.007812942 -0.20069486 -0.07341001 0.047549535 0.19080667 0.13222478 0.097814985 0.13062215 -0.004843014 -0.09379996 0.0013479766 -0.13824692 -0.16434374
185 -0.0225875 -0.0120763155 -0.004069806 -0.038755465 0.0073823733 0.17048244 0.0678322 0.1155581 0.006637934 0.014545324 0.23929657 0.15938815 0.011232752 -0.021376446 -0.046493553 0.0017106206 0.08234515 -0.12499986 0.16175054 -0.0095513 -0.19461834 -0.098830424 0.0653081 0.2035787 0.1274371 0.101292804 0.14178093 -0.013234886 -0.10189591 0.014394431 -0.13078664 -0.14214882
186 -0.03440079 0.003969375 -0.033399582 -0.055975452 -0.001630326 0.20939377 0.08020459 0.12722486 0.042387467 0.0078022513 0.26894236 0.17319454 0.0046934662 -0.024861671 -0.034902632 -0.016035516 0.0707773 -0.12389161 0.18635769 -0.01800469 -0.21448876 -0.11067394 0.07802319 0.24513207 0.15958513 0.12005703 0.16009627 0.0055085714 -0.09002354 -0.00027837127 -0.15987128 -0.18800102
187 -0.02492449 -0.0020621542 -0.040925615 -0.031848274 -0.005689554 0.20182934 0.06206562 0.13812472 0.025045156 -0.0069796043 0.25766787 0.20799533 -0.0026193024 -0.011368995 -0.044171974 0.008903814 0.07724975 -0.14864568 0.17998378 -0.011808391 -0.2171912 -0.10887978 0.061294958 0.25589326 0.1508388 0.118053444 0.14716461 -0.0018555676 -0.09340917 0.009194821 -0.14815149 -0.17578357
188 -0.024020271 0.005898276 -0.02090774 -0.023088373 0.015150529 0.14804748 0.06359786 0.107941784 0.016953832 0.013995049 0.19816639 0.14231345 0.016597021 0.011792725 -0.03285616 -0.025672674 0.06666059 -0.10266277 0.11459559 -0.00582554 -0.18107793 -0.073396765 0.04987837 0.1928742 0.14815134 0.08994293 0.119852394 -0.010037075 -0.07574717 -0.0134258 -0.13781305 -0.16008621
189 -0.031835105 -0.0060102204 -0.038745884 -0.0315275 0.013944409 0.16717863 0.04052101 0.10921334 0.030798245 0.027761498 0.20720485 0.16322264 0.02286521 -0.024508633 -0.042362574 0.006245904 0.061579157 -0.10732262 0.11784377 0.012577238 -0.18503149 -0.077449456 0.052795712 0.18162033 0.13790643 0.11523827 0.1054424 -0.0045808516 -0.10999295 0.03294751 -0.1398476 -0.13567804
190 -0.05498255 0.009922178 -0.02009423 0.006295996 -0.010394064 0.16936742 0.07575426 0.12525702 0.03166005 -0.006726848 0.23406197 0.18051824 0.028646491 -0.044935364 -0.037021466 -0.0015542099 0.07765284 -0.13736771 0.1560934 -0.0002264996 -0.19621828 -0.09544143 0.042351767 0.2619082 0.16886942 0.108563505 0.15261945 -0.00024543446 -0.09930296 -0.006568698 -0.13110924 -0.15224788
191 -0.024469214 -0.011072006 -0.021054536 -0.013888759 -0.0012280378 0.16432108 0.058814023 0.09666791 0.044049587 0.008618535 0.21065101 0.15938778 0.01851984 -0.0022733947 -0.04183679 -0.028348207 0.07897448 -0.1130669 0.14669028 0.011330898 -0.17540404 -0.08146526 0.04122197 0.21455154 0.14453231 0.09878512 0.1194285 -0.020078 -0.086689085 0.0005487502 -0.123145126 -0.16856435
192 -0.040924273 0.0064386385 -0.02561579 -0.0028335084 -0.0019529911 0.18526164 0.063858524 0.10473232 0.031882748 -0.008517268 0.21557027 0.16706769 0.018712744 -0.026040334 -0.028671464 -0.0013943963 0.09648541 -0.13279071 0.16045025 -0.00016663359 -0.1911394 -0.09571973 0.04199767 0.24489768 0.16455473 0.11006661 0.14948024 -0.010428076 -0.07945161 -0.00556964 -0.14413607 -0.1507266
193 -0.04875569 -0.003497595 -0.030609457 -0.029011555 -0.011924085 0.22007416 0.09459432 0.13559118 0.02570634 0.0052303905 0.26633263 0.1895547 0.0018534124 -0.01655546 -0.034024093 -0.016951654 0.07655705 -0.15286824 0.17871405 0.0020628017 -0.23912957 -0.12819774 0.08119155 0.25828972 0.16062677 0.103954226 0.17170334 -0.0067843827 -0.07245387 -0.006890389 -0.1453623 -0.1895637
194 -0.030068021 0.018419666 -0.01914074 -0.02372308 0.008435933 0.16845658 0.08181799 0.12513706 0.031741682 0.0059046224 0.20735748 0.16178869 0.0180879 0.014689478 -0.022698423 -0.033925172 0.08527828 -0.13021654 0.13666978 -0.008575765 -0.18456484 -0.06847967 0.030494867 0.21631572 0.16060336 0.10388497 0.11718507 -0.008643646 -0.096451044 -0.00028530767 -0.14493802 -0.16799921
195 -0.018441755 0.0015377876 -0.04422894 -0.040257797 -0.015387441 0.16630603 0.07349919 0.1278886 0.02105468 0.0013300998 0.21469736 0.15948878 0.022110758 -0.021909662 -0.026778342 0.0006173834 0.06504526 -0.11583234 0.16194648 -0.0044534095 -0.20537612 -0.10187235 0.07018546 0.22993205 0.12582229 0.0924136 0.15461107 -0.02396027 -0.07429911 -0.015761737 -0.13930663 -0.16130354
196 -0.023536982 -0.010909261 -0.04336812 -0.06347267 -0.012834139 0.18116923 0.09101298 0.13280955 0.017010923 0.0016741725 0.23560388 0.1944966 0.008316747 -0.027144223 -0.06103075 -0.009664311 0.049961228 -0.10916479 0.15150836 0.012708498 -0.20176335 -0.11574842 0.11250174 0.2385528 0.12543666 0.081157595 0.15774813 0.007957401 -0.10801097 0.014905348 -0.12486219 -0.16355552
197 -0.025795683 -0.0045267977 -0.03526064 -0.035883952 0.0137210945 0.16263823 0.060476907 0.10504296 0.006739749 0.015287855 0.1750959 0.14793843 0.013752715 -0.027668811 -0.029306065 0.009578202 0.065616846 -0.10902529 0.12593488 0.018077318 -0.17380866 -0.06608848 0.047142126 0.19909759 0.11488626 0.11385812 0.11654561 -0.0062931506 -0.071771026 0.007518082 -0.12684342 -0.12757558
198 -0.021277074 -0.0025834623 -0.026982548 -0.014639579 0.0016076282 0.1783461 0.06280826 0.11815895 0.02619769 0.0026200511 0.22965786 0.1573698 0.0034012394 -0.03479224 -0.038230807 -0.011840077 0.070596226 -0.13086003 0.12729491 0.012105664 -0.18711813 -0.078223854 0.06259278 0.2050156 0.12895752 0.10826135 0.14186913 -0.025343716 -0.06860367 -0.01665532 -0.12665124 -0.14000326
199 -0.031845007 -0.0032839184 -0.033764247 -0.024451971 0.008107675 0.16387166 0.06379424 0.106985986 0.034107883 0.003814117 0.2321208 0.16339004 0.017728144 -0.0010031724 -0.024831852 -0.013915347 0.06803346 -0.13233721 0.15461227 0.00014406236 -0.19183159 -0.065942205 0.040937904 0.22193064 0.16186664 0.11709111 0.1325895 -0.001828607 -0.10371315 -0.0025199866 -0.12691054 -0.15893982
200 -0.043368243 -0.0039496236 -0.0236844 -0.013459442 -0.013193081 0.16164392 0.081787884 0.10126076 0.013466948 -0.008942427 0.2215967 0.18231097 0.00014591837 -0.021861218 -0.048494734 -0.017329259 0.07624902 -0.11624409 0.14514834 -0.006560667 -0.18832242 -0.08373071 0.061505713 0.21330427 0.14930356 0.11768271 0.13400336 0.006833573 -0.08787722 -0.008993209 -0.13643266 -0.15132053
201 -0.02082615 -0.0053465003 -0.020810448 -0.00018354689 0.007271352 0.15117499 0.077873215 0.11761586 0.040399395 -0.0083669685 0.22114582 0.13745256 0.017981218 -0.012000831 -0.03877466 -0.030674515 0.06902452 -0.122294284 0.12539126 0.01023777 -0.18080305 -0.07338408 0.017240444 0.21734926 0.14973612 0.10739059 0.13975067 -0.0077735293 -0.0960511 0.012606369 -0.14452398 -0.169557
202 -0.02979133 -0.008457061 -0.055518765 -0.04248407 -0.016895968 0.2080047 0.0689948 0.14187138 0.027246758 -0.011445344 0.23568323 0.19517896 0.0050751194 -0.038115464 -0.03943296 -0.03621442 0.083421275 -0.13364045 0.16053891 0.016278876 -0.19633895 -0.12291704 0.076663546 0.25379458 0.15939036 0.096444815 0.14944129 -0.0013386903 -0.08687386 0.0022597583 -0.124526486 -0.16443811
203 -0.039888997 0.0037519853 -0.0481252 -0.02633914 0.00013239442 0.1984069 0.07382404 0.13744366 0.03294493 -0.0070372964 0.22617233 0.18431987 0.005925277 -0.044940233 -0.03292142 -0.0042593474 0.08179127 -0.11692547 0.16248223 0.0026604144 -0.19037233 -0.104703695 0.078676485 0.2333304 0.14851086 0.088708386 0.12784638 -0.0055217114 -0.08471102 0.0019576745 -0.12608287 -0.1554674
204 -0.049974877 -0.010443513 -0.014300207 -0.048365675 0.018077299 0.19029461 0.11870561 0.12987599 0.0428653 -0.011093134 0.2792308 0.18697219 -0.0013699945 -0.025035808 -0.035682537 -0.019211266 0.078118786 -0.14734258 0.16915739 0.0003715545 -0.23442402 -0.11858169 0.058059946 0.2546841 0.17776984 0.10973485 0.17205305 0.013882406 -0.11021266 0.008920591 -0.15066554 -0.18296579
205 -0.028166583 -0.024803894 -0.08497237 -0.0656525 -0.031986378 0.202697 0.086162195 0.1522246 0.011531336 0.01143413 0.26018697 0.21056196 0.017657146 -0.059486892 -0.08094074 0.009332078 0.08511589 -0.14042951 0.17956322 0.009043719 -0.20966801 -0.1410674 0.12636425 0.28529185 0.1631028 0.11572208 0.16510056 -0.015189162 -0.09565981 0.011454192 -0.15161622 -0.17144334
206 -0.025069408 -0.025006156 -0.033149745 -0.008448207 -0.0043971674 0.21630254 0.068188764 0.12221668 0.014915005 0.023720652 0.25325584 0.22891894 0.016446784 -0.016097486 -0.032015264 0.01520259 0.08576035 -0.13081495 0.16927631 -0.0051042126 -0.24624242 -0.099412344 0.06298384 0.24172005 0.16725133 0.11580364 0.1736837 0.00224539 -0.11318219 0.00013090316 -0.178523 -0.17371434
207 -0.034493238 0.0073960735 -0.005791115 -0.03298396 0.009249022 0.1651873 0.058364794 0.12459038 0.036240365 -0.003975122 0.21364367 0.18481676 0.019701293 0.0026666243 -0.029052531 0.021505369 0.07403997 -0.11789829 0.14954466 -0.005220236 -0.20528463 -0.07149597 0.043658625 0.20248184 0.13892852 0.1103254 0.14795698 0.007092764 -0.072670296 0.0041922014 -0.11638217 -0.1471079
208 -0.039503764 -0.010418461 -0.012939165 -0.02070465 -0.008435196 0.17471035 0.057980206 0.10319087 0.035235967 0.00020571385 0.20323431 0.17412584 0.026505759 -0.047608156 -0.027996348 0.010070246 0.07910821 -0.1348947 0.15423949 -0.0062832823 -0.18979801 -0.09512772 0.070727475 0.23443082 0.13865645 0.11075083 0.1360112 -0.013828984 -0.09467086 -0.005981416 -0.1436328 -0.1393196
209 -0.03311978 -0.001814929 -0.01910682 0.013294306 0.006964176 0.12517911 0.06634125 0.07976981 0.022671139 -0.008644074 0.16255307 0.11815001 -0.0022556165 0.0033018312 -0.013652929 -0.028941011 0.049943928 -0.103153214 0.1108802 -0.00039087757 -0.1585941 -0.055020727 0.0056999126 0.16476728 0.112817556 0.0848061 0.09377143 0.002792441 -0.06344921 -0.021256344 -0.10110482 -0.13085452
210 -0.03597702 0.003517808 -0.03401389 -0.04242666 -0.010398978 0.1688777 0.051520187 0.11378755 0.015239755 -0.00010108264 0.2188685 0.18103142 0.029160824 -0.030766822 -0.031636506 -0.0038415443 0.066462815 -0.10693112 0.13772003 0.009642045 -0.17344676 -0.095102556 0.061123513 0.2085625 0.13732003 0.09406968 0.114041135 -0.0088414 -0.08209835 0.006105815 -0.13674465 -0.13196434
211 -0.036483683 -0.0150403725 -0.04314651 -0.028684793 -0.015867928 0.19276947 0.05318088 0.13734943 0.018104987 -0.005047303 0.19652747 0.16511987 0.022017706 -0.051891457 -0.04924256 0.0044933837 0.068050124 -0.13607897 0.16342351 -0.016671753 -0.17758729 -0.10407118 0.055317394 0.23267794 0.14323303 0.10415483 0.1307171 -0.027735515 -0.07250786 -0.0035819542 -0.112247035 -0.13843998
212 -0.03331222 -0.0005615302 -0.04525768 -0.018111067 -0.029882606 0.19312595 0.07163899 0.116742864 0.01989153 0.0028891158 0.20396793 0.18527274 0.0058244253 -0.06398305 -0.048809413 0.011939083 0.06392116 -0.1489243 0.16222069 -0.012300647 -0.18824646 -0.10425875 0.09732748 0.24845633 0.11857528 0.09355305 0.14784674 -0.014628971 -0.07327243 -0.020034092 -0.13592637 -0.14018328
213 -0.014922336 -0.017502606 -0.01230306 -0.017729491 -0.0103834905 0.19014485 0.080792576 0.121728 0.028565401 0.0099265715 0.2559015 0.20982192 0.011316953 -0.020657172 -0.04071926 0.03470393 0.086975634 -0.11398685 0.13624974 -0.008379296 -0.21429582 -0.081210904 0.05579591 0.22208811 0.14451966 0.14876755 0.16673824 -0.010431194 -0.09197777 0.03986162 -0.16271023 -0.16811675
214 -0.041313495 -0.0038453748 -0.042065572 -0.023445202 0.0072852885 0.16934909 0.074340664 0.11960547 0.03262085 0.011574245 0.23115619 0.15762295 0.023231687 -0.027973583 -0.047477398 -0.021693377 0.06374725 -0.11523834 0.14819042 0.0025190152 -0.20545447 -0.09546887 0.06860283 0.2319812 0.13152952 0.10954261 0.13332443 0.003907303 -0.089843005 -0.00096563983 -0.12669076 -0.13918337
215 -0.031415526 -0.0013233108 -0.04055069 -0.033240426 0.008180448 0.15325987 0.058219425 0.11597998 0.018072866 0.009656742 0.21025325 0.16482216 0.023125516 -0.040316556 -0.025646957 0.0003443221 0.081790216 -0.13367459 0.13137993 -0.0013081762 -0.17830181 -0.08144355 0.06291862 0.21767245 0.12394509 0.07924913 0.14033203 -0.013873928 -0.089823306 0.008137581 -0.1158662 -0.15805167
216 -0.039737385 0.0071280855 -0.02105789 -0.005773097 0.0068473932 0.17888959 0.06977069 0.12037282 0.04055127 0.005828166 0.22528577 0.19820519 0.028298264 -0.012645089 -0.020830082 0.0035836815 0.08986094 -0.12728034 0.16740894 0.007618885 -0.21027774 -0.07377879 0.05879921 0.25036472 0.16950019 0.12312284 0.12698206 -0.0013464248 -0.10827087 -0.00858632 -0.13886046 -0.15431681
217 -0.028325725 0.001812299 -0.013579436 -0.0051246537 -0.006333144 0.11767865 0.08536324 0.08729533 0.023974797 0.0049392744 0.18611126 0.12677668 -0.007471009 0.007271124 -0.0042994036 -0.035012722 0.05759789 -0.0965314 0.120258994 0.0013837869 -0.16827655 -0.077585354 0.028588602 0.20636089 0.12600675 0.06619855 0.09978789 0.011352432 -0.04814987 -0.030771207 -0.0935862 -0.12498177
218 -0.016839951 0.002555555 -0.031517256 -0.019984195 0.0025616514 0.16216986 0.06331072 0.119602494 0.02014777 0.011725203 0.20866041 0.1819955 0.023773681 -0.02709097 -0.021102367 0.005021764 0.0876954 -0.13015099 0.13420293 -0.012388891 -0.1685613 -0.07326764 0.041181505 0.2077206 0.13262473 0.09791371 0.12073239 -0.019067258 -0.0915399 0.0018497689 -0.13224626 -0.13700825
219 -0.009725983 -0.027820187 -0.043178275 -0.028921794 -0.026816582 0.21155082 0.053061835 0.12739204 0.017397992 -0.007938274 0.25260162 0.21927823 0.022234414 -0.03741519 -0.052748695 0.011775538 0.06880842 -0.14148022 0.18254395 0.01279847 -0.2364934 -0.13140254 0.10099584 0.245379 0.16717719 0.10047887 0.15563884 -0.028177764 -0.07685512 0.009371127 -0.14432666 -0.15229675
220 -0.03137397 -0.018710412 -0.045368124 -0.022132516 -0.0016589434 0.2014752 0.09629643 0.12416365 0.025075091 -0.0011473614 0.25235963 0.1940727 0.014953648 -0.021669935 -0.046511248 -0.009143674 0.07628039 -0.14253984 0.18506485 -0.010038291 -0.22736213 -0.09018667 0.070484705 0.25818548 0.18166426 0.1107501 0.16251154 -0.012118687 -0.101278946 0.00037265813 -0.15054564 -0.18012005
221 -0.03954378 -0.013558062 -0.019737672 -0.020405002 0.009388893 0.20359424 0.09133334 0.10930536 0.042001355 -0.004638685 0.26647246 0.2056433 0.007610035 -0.015687283 -0.029352484 0.010692451 0.0914994 -0.15771227 0.18871786 -0.01758202 -0.232155 -0.09587728 0.03493954 0.27830407 0.17027847 0.14495161 0.16040383 -0.026223792 -0.11130413 -0.005953664 -0.16298272 -0.19198425
222 -0.037164446 -0.010141635 -0.024661858 -0.016042719 0.010617321 0.13503607 0.063605696 0.07065794 0.033957224 0.0006213074 0.17643823 0.12467808 -0.0007046075 0.00016933156 -0.036473446 -0.00012119602 0.03793444 -0.104629196 0.114125006 -0.011506046 -0.13799621 -0.07205615 0.045909084 0.16643836 0.09185767 0.061197583 0.09624187 -0.01112589 -0.064821765 0.005157696 -0.11267897 -0.1241598
223 -0.04220301 -0.002134297 -0.034883972 -0.009128942 -0.0100071905 0.18038498 0.07318215 0.123544686 0.018523047 0.0041029556 0.23252457 0.19213383 0.016573356 -0.030382244 -0.03139121 0.0083369715 0.07357477 -0.116342954 0.13388409 0.0037393987 -0.18870628 -0.079319894 0.049370248 0.2239079 0.15954381 0.11884632 0.1371404 -0.0058827414 -0.08923629 0.015381506 -0.1370737 -0.16187075
224 -0.019433988 -0.01019682 -0.04436759 -0.044205457 0.0091257915 0.20015383 0.07446483 0.14653192 0.014473468 -0.0017699713 0.27845153 0.17822345 -0.0069016865 0.00058382965 -0.041981366 0.0012514906 0.05943894 -0.13934211 0.17570849 0.0012303644 -0.22168028 -0.09804102 0.07472019 0.23577139 0.16609554 0.116325706 0.15365522 0.0026719535 -0.105893254 0.00040400698 -0.150135 -0.17990205
225 -0.037584387 -0.015798502 -0.04014962 -0.06834784 0.0041065305 0.2032119 0.08473386 0.12137995 0.023037672 0.0003495295 0.25847834 0.19769354 0.011489331 -0.0363828 -0.038729526 -0.009690287 0.082800925 -0.15212262 0.1636881 0.00031312005 -0.23130341 -0.11828477 0.100435354 0.2763542 0.14604963 0.10606739 0.14671992 -0.0042217146 -0.08885454 -0.019411083 -0.14668185 -0.18774006
226 -0.031286243 -0.0058510853 -0.038446773 -0.0029291867 -0.01659749 0.13545643 0.048677213 0.101575196 0.012803318 0.002862048 0.19262885 0.16847998 0.008727195 -0.03279034 -0.039778046 0.014966593 0.06673306 -0.10513908 0.11444867 -0.0029781207 -0.14817722 -0.07140743 0.06029206 0.18222027 0.1294274 0.0996189 0.12546083 -0.013593329 -0.09734577 0.016577618 -0.13077328 -0.10861656
227 -0.038943663 0.00057766365 -0.047556475 -0.040551744 -0.013365127 0.17800863 0.07138186 0.14085822 0.016280137 -0.0072250715 0.24511862 0.18386404 0.012974624 -0.04059088 -0.026584625 -0.016401762 0.054496113 -0.13925621 0.15159632 -0.023297338 -0.20319971 -0.11491083 0.07295171 0.24078429 0.15473442 0.11394542 0.13230258 -0.0020888723 -0.09566938 -0.0012829328 -0.1567053 -0.17667834
228 -0.052796878 0.0051344726 -0.019651327 -0.018036708 -0.01024662 0.18403544 0.06741164 0.10635271 0.027782237 -0.011117349 0.2591946 0.201347 0.02498871 0.00020426008 -0.03308193 -0.013696171 0.078855895 -0.13192648 0.15346026 -0.015198321 -0.21524313 -0.08834127 0.028500093 0.24686174 0.16304491 0.12132969 0.15397903 -0.010019819 -0.084034465 -0.013362533 -0.13794017 -0.17975889
229 -0.030415809 0.003130465 -0.036144216 -0.05069506 -0.008294352 0.2139525 0.086847514 0.11429634 0.030461548 0.0020515504 0.25800875 0.20075832 -0.0020499972 -0.029692516 -0.048788752 0.030087387 0.08369703 -0.14985195 0.16824478 -0.010872632 -0.23236065 -0.112335496 0.08631322 0.24730341 0.1682018 0.11506451 0.1830205 0.001242619 -0.106161274 -0.011467634 -0.14914131 -0.15971026
230 -0.03084487 0.01131646 -0.019153478 -0.03351072 0.020440064 0.16968907 0.074234664 0.10844335 0.038571633 -0.010503838 0.23773272 0.18108195 -0.004029562 -0.016129978 -0.018895913 -0.020595055 0.06988117 -0.1469868 0.16444327 -0.018375114 -0.21487704 -0.07882002 0.038823847 0.2558173 0.15375789 0.10044148 0.14557816 -0.0008449472 -0.098719865 -0.020540565 -0.14684133 -0.1719664
231 -0.04536292 0.006329101 -0.024271626 -0.0077623175 0.0060771476 0.22336659 0.07619756 0.13631375 0.04306727 -0.013902347 0.25414398 0.20628518 0.018420363 -0.033981837 -0.059089616 0.013721109 0.10962316 -0.1410507 0.17396045 -0.012876882 -0.22032169 -0.11639882 0.040248815 0.26995718 0.16061185 0.12978946 0.1736609 -0.00486375 -0.12873496 -0.0053837555 -0.1545964 -0.17212616
232 -0.030875767 -0.00031372288 -0.0022954668 -0.0039101 0.0005435544 0.18283741 0.07919428 0.12350429 0.02294356 0.0031109038 0.23390588 0.17424472 0.007958389 -0.0054893806 -0.041965123 0.009932575 0.06547647 -0.12625839 0.16158432 0.0070301327 -0.18790413 -0.089505024 0.037787516 0.23219582 0.16537295 0.13015032 0.1333915 -0.027517451 -0.08606085 0.0049245083 -0.13236657 -0.1711605
233 -0.0418144 -0.012074071 -0.031208534 -0.014114757 0.0013822436 0.18467478 0.065673865 0.13381638 0.031023454 -0.008291992 0.22547883 0.19277681 0.020230718 -0.040676504 -0.018864127 -0.018797962 0.08853765 -0.15219548 0.1716444 -0.007901007 -0.2177883 -0.10017292 0.066756755 0.2463685 0.16474089 0.12497053 0.14770159 -0.025182864 -0.07716531 -0.011415177 -0.13693999 -0.15797089
234 -0.045285568 0.0032039096 -0.015097742 -0.04395586 0.0018102829 0.20935975 0.10020121 0.14408413 0.04093789 0.017719293 0.30317703 0.2237284 0.011986234 -0.018823085 -0.048576135 -0.009440227 0.089065254 -0.13139945 0.18895213 0.010207297 -0.26255128 -0.10340607 0.04458074 0.25055635 0.19434537 0.11449165 0.17148536 0.00076085475 -0.12174804 -0.0067680064 -0.14914997 -0.20020589
235 -0.04424281 -0.0046253013 -0.036931787 -0.033527356 0.010841983 0.19446862 0.073753394 0.1332476 0.023345036 -0.002202078 0.24758247 0.19181746 0.018166078 0.0022199876 -0.032664247 0.002185525 0.078601755 -0.12093308 0.1747908 0.0109565975 -0.20542158 -0.07469523 0.037516907 0.2588244 0.18393199 0.13791822 0.15512578 -0.018065931 -0.088354126 0.010841213 -0.13478833 -0.1714487
236 -0.03817714 0.004122598 -0.017823612 -0.012881687 0.011518289 0.14614622 0.062047333 0.098052956 0.0334143 -0.0049233832 0.20205587 0.16464593 0.012995944 -0.01613753 -0.033674974 0.0089765275 0.040942684 -0.12356812 0.12717435 0.0037161615 -0.18463832 -0.062578484 0.051640682 0.19069791 0.14054705 0.08031908 0.13568392 -0.0028509998 -0.0726196 -0.012991622 -0.12403552 -0.13033661
237 -0.031965323 -0.0015758346 -0.03431966 -0.01415535 0.015683122 0.18085732 0.07273734 0.13401549 0.022958439 -0.0006010426 0.22646905 0.19000126 0.00872592 -0.0018880042 -0.04189909 0.0059248274 0.05525525 -0.117497 0.14369178 -0.0030481908 -0.21784252 -0.104970425 0.08151317 0.20194098 0.14365512 0.10129332 0.14476168 -0.018729484 -0.08885221 -0.0038881628 -0.1251196 -0.14331967
238 -0.03136534 -0.00741045 -0.021784725 -0.0440481 0.005533648 0.1882914 0.06373814 0.11886903 0.016660655 0.00895559 0.24656634 0.1729425 0.00039203707 -0.017448759 -0.044584047 -0.008690191 0.07348712 -0.111384116 0.14847115 0.000642096 -0.22033194 -0.099608384 0.07445745 0.22948031 0.14549151 0.09519339 0.15506642 0.008104976 -0.08056726 -0.00020786464 -0.14994863 -0.16801319
239 -0.03326999 -0.0020193963 -0.030495306 -0.029215848 -0.004414986 0.16998182 0.075728014 0.119013265 0.021279987 -0.015241695 0.21947889 0.16409475 0.0022560593 -0.03437887 -0.019696927 -0.011941008 0.07308105 -0.12651771 0.15942267 -0.008003179 -0.19500187 -0.080531776 0.063015364 0.25462124 0.15046968 0.10001697 0.12644278 0.0013722305 -0.077663444 -0.022696614 -0.13277176 -0.15981978
240 -0.03275971 -0.002067047 -0.027716152 -0.030958375 0.012021839 0.16248526 0.086175725 0.10347341 0.037945505 -0.013522516 0.22425686 0.15659401 -0.0032276202 -0.036552224 -0.03708586 -0.030148173 0.07587369 -0.12950763 0.1504906 0.00076920795 -0.18571706 -0.0853229 0.061788123 0.2505709 0.16140443 0.095757164 0.112928905 -0.013625374 -0.08063057 -0.0032641497 -0.117160186 -0.17668141
241 -0.037791554 -0.016353628 -0.04414257 -0.019504732 0.011461042 0.18837638 0.09385779 0.11821682 0.023604693 -0.013171451 0.22978696 0.18560934 0.004689908 -0.02677806 -0.024567956 -0.0036549633 0.061938513 -0.12762438 0.1643615 -0.016731003 -0.20494963 -0.10424014 0.06581834 0.23424332 0.15501685 0.09567636 0.13428721 -0.013064531 -0.07348599 -0.019356886 -0.13551365 -0.16921587
242 -0.047726914 0.01149642 -0.01285521 -0.023017775 0.007047179 0.15073626 0.06632385 0.10631363 0.02698591 0.005173585 0.22376736 0.17042822 0.018681256 -0.013280217 -0.019497111 -0.01563886 0.07517951 -0.11877267 0.1452086 -0.0021392265 -0.18965855 -0.09048968 0.02295591 0.22909835 0.13906921 0.09405818 0.13598792 0.0003505702 -0.09089366 0.0025331404 -0.13793188 -0.14238359
243 -0.034271717 0.008096797 -0.043258816 -0.046814907 0.011101831 0.19982013 0.06619126 0.11649356 0.04289753 0.011799413 0.25408897 0.19955158 0.0023009207 -0.019268123 -0.038698528 -0.007518287 0.08959159 -0.16020115 0.17540126 -0.014700425 -0.23329708 -0.09948532 0.08378724 0.24945226 0.15828377 0.101885185 0.15480681 -0.010029616 -0.09984926 0.0020489942 -0.1570733 -0.16453554
244 -0.017253643 1.2208983e-05 -0.02994179 -0.0152841965 0.019248119 0.19847104 0.054219868 0.117879085 0.037063785 0.005209062 0.23313701 0.18084964 0.025927948 0.0047229556 -0.02591867 0.00339187 0.08239794 -0.1106683 0.13513958 0.009170428 -0.21528305 -0.09747316 0.053604137 0.21455817 0.17405327 0.11949075 0.1482055 0.0050186 -0.09241428 0.0006257478 -0.13713758 -0.15704834
245 -0.024763627 -0.017044293 -0.008547562 0.005689716 0.024710344 0.1871953 0.053945698 0.102266766 0.05152905 0.017890224 0.2170132 0.1821053 -0.0005441082 -0.010929448 -0.030427895 -0.017608026 0.08397676 -0.13634875 0.15210828 -0.012451465 -0.20514676 -0.06091161 0.026867315 0.2225599 0.16577627 0.13249071 0.14646976 0.0043996107 -0.107291564 -0.003565434 -0.14596462 -0.17665455
246 -0.043050405 0.0037377693 -0.020677947 -0.028077085 0.011202148 0.19814673 0.093456775 0.106740996 0.03324327 0.014315399 0.2540203 0.18893398 0.020707695 -0.018575056 -0.029932095 0.027791075 0.07354297 -0.12826264 0.17559054 -0.013754663 -0.22046429 -0.09824138 0.05562912 0.23581797 0.15954557 0.13387331 0.17077999 -0.016471738 -0.08694135 -0.0074965693 -0.13961679 -0.16043565
247 -0.04236478 -0.0121099455 -0.045740586 -0.04124121 -0.015549379 0.16496211 0.06887218 0.117491424 0.01279 -0.007710371 0.20491229 0.17645127 -0.0025471651 -0.009754949 -0.04062641 0.0072752936 0.06506542 -0.11362884 0.12280004 0.0029632705 -0.18467906 -0.08555014 0.07088603 0.20945203 0.13521726 0.092495464 0.14247063 -0.007147216 -0.06525971 0.007666488 -0.11716361 -0.13586274
248 -0.03824125 0.0031185192 -0.06055012 -0.0310002 -0.029226314 0.18422687 0.08080746 0.12261779 0.020301534 0.002231158 0.2341393 0.18524288 0.014480524 -0.055740397 -0.061159935 -0.009568912 0.06862047 -0.13399109 0.14618236 -0.0019439744 -0.15992512 -0.12293175 0.07646482 0.24183013 0.14376397 0.107130826 0.14754596 -0.005302016 -0.099883966 0.0006000192 -0.14654319 -0.14590298
249 -0.04788998 -0.008359844 -0.05494974 -0.04226016 -0.001273034 0.18860751 0.08225233 0.13678265 0.011276911 0.0091671655 0.23811758 0.19253626 0.011873648 -0.03591441 -0.06258602 -0.030387536 0.061907336 -0.13417524 0.14570576 0.009061776 -0.21038759 -0.11526893 0.09001546 0.24090593 0.14440079 0.09222991 0.15351863 -0.0040112087 -0.11041592 0.017518291 -0.1392485 -0.16102087
250 -0.060199946 0.0075190375 0.02738211 0.01170976 -0.0040742145 0.20877372 0.085856475 0.106443785 0.03549502 -0.018659854 0.28928798 0.20470425 0.012796252 0.013008117 -0.02250615 0.022077037 0.12107282 -0.13462862 0.19605766 0.0031774233 -0.24487107 -0.07027894 0.014880358 0.26976103 0.19237426 0.14885595 0.17529812 0.008210484 -0.11787011 0.0155645665 -0.16658138 -0.20960487
251 -0.02394083 -0.0171378 -0.02148757 -0.019494358 -0.0012513996 0.20403722 0.08057082 0.12879893 0.02763197 0.004554643 0.24865538 0.20397687 0.015826726 -0.03789198 -0.03402421 -0.008043496 0.0864827 -0.12698513 0.17364842 0.0028055608 -0.21243814 -0.09667883 0.064091414 0.2723615 0.16946252 0.13369235 0.14180094 -0.0059961383 -0.1030268 -0.0019185428 -0.14417934 -0.18373138
252 -0.028128628 -0.0058628446 -0.0034069817 -0.025626129 0.01560034 0.1904859 0.086524546 0.09556136 0.047887053 0.014964957 0.26700103 0.15723653 0.0127776405 0.012327328 -0.037404664 -0.0042010513 0.07558958 -0.12658304 0.13197109 -0.019318618 -0.2226404 -0.09119269 0.038208853 0.23206615 0.16595973 0.09680814 0.16167806 0.019967109 -0.10644337 0.0051766685 -0.14077099 -0.16917388
253 -0.031059584 -0.010162874 -0.043294236 -0.045607064 0.007085824 0.23533289 0.09626543 0.13768157 0.033449106 -0.007474691 0.280781 0.21766855 0.0228752 -0.040933207 -0.05892793 -0.0055248383 0.0745352 -0.15207124 0.17609558 -0.00235914 -0.23569483 -0.11527894 0.06543843 0.2601535 0.17401585 0.14345914 0.15635584 -0.013394012 -0.12681939 0.016810054 -0.16522424 -0.19671379
254 -0.010606556 -0.012811802 -0.040216025 -0.013000553 0.010110219 0.1868879 0.038475882 0.117487736 0.03368687 -0.0028534755 0.21081826 0.17156929 0.025802247 0.006045926 -0.03524626 -0.0065811146 0.0667884 -0.111243814 0.13444631 -0.010144786 -0.18554468 -0.083486184 0.05649105 0.21257468 0.1509576 0.124525614 0.1268085 0.0008874698 -0.08906741 -0.009608932 -0.15803687 -0.1365091
255 -0.029704096 0.00085105695 -0.04125185 -0.034073483 0.0003442965 0.18455495 0.06374126 0.14290245 0.01571531 -0.0035685005 0.24164166 0.15875591 0.005454309 -0.04582468 -0.035752416 -0.010133457 0.06361608 -0.14351243 0.17278491 -0.004976776 -0.20573609 -0.10452143 0.07721543 0.24607961 0.13761236 0.097519 0.15383312 -0.0075454875 -0.06511315 -0.010775059 -0.14673671 -0.16544293
256 -0.022221904 -0.007960298 -0.036658768 -0.021687625 -0.002148247 0.16632509 0.05526347 0.12020498 0.036181815 0.006050933 0.23231687 0.14682713 0.015256398 -0.021248065 -0.034985404 0.011005739 0.07488488 -0.11134875 0.1317682 -0.016038148 -0.17850146 -0.07339248 0.0648855 0.20582262 0.1307376 0.08751871 0.13193099 -0.01976238 -0.07957186 0.0013324918 -0.14527677 -0.13772485
257 -0.044923335 0.0075229644 -0.045404453 -0.051716838 -0.010874958 0.20076002 0.07636859 0.12875615 0.0037449168 0.004010954 0.2555221 0.17326574 -0.0049490086 -0.0378042 -0.042230397 -0.03375477 0.052294184 -0.12332751 0.14029707 0.003966589 -0.2087214 -0.100679494 0.093750864 0.22712247 0.113685854 0.082497105 0.14112905 -0.0033602484 -0.10026004 -0.022929396 -0.14005166 -0.15896587
258 -0.017418472 0.004949532 -0.0062057683 0.0010363034 0.008632514 0.14827514 0.029213043 0.10698229 0.037931353 0.008653145 0.19323696 0.14171039 0.009310707 0.0008306807 -0.027056877 0.027269902 0.05303087 -0.10033895 0.1158288 -0.0059782737 -0.17232256 -0.06848406 0.039433066 0.17360392 0.15079719 0.11326637 0.11603562 -0.019174354 -0.0738032 -0.01167182 -0.12768956 -0.13275675
