30 32
0 -1.1401414 -0.6899896 -0.8372131 -1.306979 -1.6536623 0.14582358 1.9850582 1.2354916 -0.6281565 -0.44651517 0.3747565 -1.38899 -1.5359508 0.71393657 -0.7630969 -0.5670513 -2.232129 -0.12178508 0.07960889 -1.1432635 -1.9471184 -0.3636012 -1.0757337 -0.2737297 2.1533535 0.920322 -0.7942476 -0.26083526 0.511338 -2.123981 -0.7464406 1.4475827
1 -1.0073988 -0.623045 -0.5481201 -1.3523918 -1.7185013 0.17886946 2.0350919 1.1496207 -0.5144941 -0.44561082 0.31643713 -1.4648154 -1.6935827 0.58520496 -0.5890581 -0.51989615 -2.3369548 0.038624607 0.23652993 -1.1403378 -1.9556817 -0.48374704 -1.0454861 -0.08068144 2.2832654 0.84870136 -0.65758854 -0.27683577 0.6286139 -2.1417944 -0.6274269 1.5505462
2 -0.06265039 -0.05177993 -0.06674372 -0.082876064 -0.107600294 0.0004986802 0.13696575 0.084819004 -0.042525418 -0.018819973 0.027314575 -0.07552242 -0.110664696 0.053317007 -0.05763304 -0.047134448 -0.13487579 -0.012869239 -0.0067166626 -0.09272149 -0.11900996 -0.013526882 -0.052386373 -0.004366199 0.14464796 0.075292796 -0.04056975 -0.02845293 0.046445247 -0.13490115 -0.039298538 0.10199505
3 -0.09271669 -0.04160686 -0.0635814 -0.08224605 -0.1034306 0.017745556 0.15197217 0.09897342 -0.06447467 -0.03665248 0.019490983 -0.10997455 -0.11317993 0.060173843 -0.062967554 -0.045872994 -0.1626677 -0.0016603377 0.0014588119 -0.089878954 -0.1306483 -0.0193115 -0.07152034 -0.026121965 0.14632875 0.0739737 -0.06377755 -0.00520455 0.045374278 -0.15560372 -0.059917558 0.09262569
4 -0.085388556 -0.06373276 -0.050664518 -0.12425415 -0.15985958 0.008438796 0.16471389 0.11467708 -0.0527098 -0.028753981 0.029095372 -0.11895153 -0.14168832 0.053385105 -0.061884172 -0.031254224 -0.21015126 -0.015500219 0.028404191 -0.0964854 -0.1522083 -0.045261167 -0.077615485 -0.024522338 0.1902929 0.072764575 -0.055183984 -0.019628841 0.0464131 -0.18012701 -0.058556125 0.13101852
5 -0.08321262 -0.06272442 -0.07224869 -0.090503246 -0.1260738 0.009062659 0.14732301 0.076246515 -0.033909593 -0.03482301 0.0057945545 -0.10480606 -0.12745216 0.047010463 -0.0673494 -0.04767985 -0.16613017 0.0014653689 0.019740479 -0.086552374 -0.14248005 -0.03221385 -0.0863107 -0.025380423 0.14145033 0.056913547 -0.07024547 -0.022222577 0.03319898 -0.14116322 -0.034393713 0.10649532
6 -0.06774697 -0.050795108 -0.071702935 -0.09065435 -0.106519625 0.015214802 0.13583595 0.073555015 -0.031053111 -0.016328484 0.00844147 -0.09006585 -0.08861417 0.048834383 -0.044966917 -0.04591863 -0.14230403 -0.005558167 0.023911236 -0.07087384 -0.12891163 -0.03581459 -0.049214214 -0.0003381718 0.12959604 0.07017705 -0.057167374 -0.006420122 0.03768585 -0.15212084 -0.029083315 0.11025155
7 -0.06494487 -0.037746817 -0.06845234 -0.07571272 -0.09121149 0.015934898 0.114799604 0.07800623 -0.03242765 -0.026813475 0.034155432 -0.09045354 -0.07352359 0.036264863 -0.045466036 -0.050878737 -0.12125394 -0.01741564 0.010635293 -0.059972618 -0.12874743 -0.011017962 -0.05691954 -0.017925693 0.107660055 0.056628082 -0.069361836 -0.020436157 0.023053072 -0.12262445 -0.043203782 0.07058739
8 -0.078786954 -0.056075886 -0.079934165 -0.086533986 -0.12191173 0.0022350738 0.13945593 0.08563225 -0.04909733 -0.024982182 0.010201252 -0.080319725 -0.08575154 0.05565088 -0.060999528 -0.04936273 -0.15174052 -0.015977347 0.020592328 -0.095098235 -0.123073846 -0.034537837 -0.0579645 -0.02854112 0.12984118 0.050624218 -0.05968063 -0.02629504 0.017295182 -0.13189569 -0.06103262 0.10874507
9 -0.10670215 -0.07399708 -0.099854976 -0.074598536 -0.11936792 0.0035130451 0.14471771 0.089750424 -0.041238934 -0.022213945 0.018899584 -0.0787609 -0.08671456 0.05282331 -0.06825152 -0.039503675 -0.15390779 -0.03719008 -0.009314819 -0.0918204 -0.13079523 -0.003242813 -0.05555666 -0.03237406 0.117544055 0.06394907 -0.08289979 -0.02918546 0.027532566 -0.14761354 -0.06636189 0.07954729
10 -0.054903127 -0.02883867 -0.031089786 -0.092275344 -0.12732284 -0.0008943539 0.13135687 0.079563305 -0.018133141 -0.04211383 0.020561785 -0.08446475 -0.10668077 0.04280116 -0.03316343 -0.046877652 -0.14792557 0.014073127 0.025900364 -0.07431512 -0.13965121 -0.036065437 -0.056375854 0.011596074 0.15445709 0.06788261 -0.032779638 -0.0064643146 0.029937781 -0.14655507 -0.032990173 0.09274239
11 -0.09996381 -0.07128217 -0.066688985 -0.098612145 -0.14356641 0.015388301 0.16815148 0.08269934 -0.036744397 -0.026278319 0.016266184 -0.09935139 -0.13159588 0.055289775 -0.046321172 -0.051483918 -0.18574081 -0.020515706 0.012022844 -0.10165486 -0.15327707 -0.029281035 -0.066286966 -0.0018787725 0.16086687 0.07845662 -0.07508889 -0.039097767 0.04692502 -0.18261561 -0.04279342 0.1066843
12 -0.09395037 -0.07134149 -0.078229904 -0.09172072 -0.12052962 0.023596538 0.14132655 0.09605998 -0.058568656 -0.038316943 0.038038854 -0.11204933 -0.09941998 0.053248126 -0.0753049 -0.048674088 -0.15568437 -0.0071295933 -0.0133014815 -0.08535169 -0.14804941 -0.014218774 -0.08411216 -0.03628688 0.14492263 0.06263741 -0.08424518 -0.02189524 0.039909333 -0.17059541 -0.04829973 0.10800097
13 -0.076080814 -0.035454158 -0.064944714 -0.072672136 -0.08520793 0.006423279 0.1160932 0.06634633 -0.0506587 -0.039279774 0.015643442 -0.07206322 -0.08655158 0.05603491 -0.055353012 -0.038919494 -0.11559815 -0.025773231 -0.0033481845 -0.07719689 -0.101622544 -0.016326262 -0.06271723 -0.022520173 0.0994856 0.06862015 -0.06925484 -0.011481566 0.03164613 -0.13330978 -0.059621166 0.07716828
14 -0.11375993 -0.057608843 -0.09271465 -0.10286935 -0.15665825 0.0014598992 0.18153337 0.10391522 -0.0592587 -0.027757801 0.01968354 -0.13010998 -0.12688927 0.07628222 -0.0993567 -0.041260447 -0.2036071 -0.031887572 -0.0040765274 -0.09407251 -0.16881147 -0.023905953 -0.10444278 -0.03464636 0.17781255 0.07511074 -0.07365306 -0.031994805 0.040235873 -0.18754436 -0.07640338 0.11668925
15 -0.11422377 -0.0537308 -0.09682149 -0.11455984 -0.13949418 0.005963907 0.15481776 0.09846959 -0.06887741 -0.023260605 0.024691617 -0.097324714 -0.10592101 0.06880017 -0.08977084 -0.051647842 -0.18185222 -0.013405371 0.0064390628 -0.102061555 -0.14801207 -0.0171731 -0.08535422 -0.037671044 0.16410643 0.080206744 -0.06352361 -0.017351832 0.042659283 -0.17529282 -0.05409596 0.092304476
16 -0.0741613 -0.03702907 -0.052590944 -0.09820326 -0.13325605 0.015776413 0.16007018 0.07940568 -0.049965434 -0.021836706 0.00489632 -0.09958063 -0.11511165 0.056686543 -0.05453158 -0.019929621 -0.17655861 0.008712312 0.021938145 -0.07789096 -0.1327349 -0.05380145 -0.06660856 0.009818004 0.1502899 0.07265859 -0.047868446 -0.012812072 0.049225055 -0.15596652 -0.039487485 0.10686692
17 -0.09142407 -0.063698426 -0.058956977 -0.114585854 -0.14466736 0.00037221727 0.18108357 0.09720291 -0.063943446 -0.03647379 0.03806465 -0.10334985 -0.12250522 0.04924708 -0.05097028 -0.054794643 -0.19051562 -0.009378491 0.0015215438 -0.09930906 -0.15460429 -0.032797378 -0.079567604 -0.029351883 0.16353977 0.0759453 -0.04928248 -0.032076623 0.039508954 -0.18506326 -0.058467172 0.11821782
18 -0.06241851 -0.053041477 -0.059601095 -0.096130304 -0.121546835 0.012382472 0.13321596 0.0779067 -0.028723205 -0.014803642 0.014831163 -0.08425641 -0.102613576 0.058718428 -0.033790134 -0.026003653 -0.15500699 -0.011425482 0.017553456 -0.0924867 -0.13122965 -0.04266369 -0.056754764 -0.022625323 0.16277102 0.0691424 -0.052089646 -0.028726505 0.03431311 -0.14799103 -0.05379174 0.10000123
19 -0.08193012 -0.054332826 -0.07343045 -0.09602927 -0.13517869 0.006321605 0.14883213 0.10541513 -0.05704438 -0.024336267 0.026077256 -0.09996023 -0.13148786 0.06273136 -0.046158955 -0.04670214 -0.17842081 0.0045377077 0.0031051782 -0.108703054 -0.16496082 -0.02637288 -0.067585096 -0.010571673 0.1636967 0.08231693 -0.07022652 -0.023260873 0.044030815 -0.16685545 -0.055312958 0.10745052
20 -0.11105112 -0.08087263 -0.08746721 -0.11605024 -0.15310197 0.011849779 0.18487412 0.112518564 -0.05652508 -0.045426324 0.02764977 -0.13529125 -0.13039128 0.05651701 -0.06682083 -0.033018142 -0.18585305 -0.003107333 0.007390991 -0.10122375 -0.16383685 -0.04508101 -0.094178736 -0.027205462 0.16933611 0.08700975 -0.05799171 -0.027010502 0.05385067 -0.19717093 -0.054367498 0.112131424
21 -0.086973436 -0.07449244 -0.07924104 -0.11368988 -0.13680257 0.029368348 0.16109098 0.0937805 -0.05404418 -0.047348928 0.010861488 -0.10550341 -0.12962538 0.06936725 -0.063912526 -0.052480716 -0.19505168 -0.0071512284 0.012405341 -0.10730619 -0.16090538 -0.052450527 -0.07769033 -0.020883685 0.17320462 0.08823947 -0.054082725 -0.030097796 0.037620317 -0.19086948 -0.04353732 0.11521929
22 -0.12638576 -0.071231805 -0.09759758 -0.123089045 -0.18125199 0.029475398 0.19512077 0.1311776 -0.0552058 -0.05076055 0.01556205 -0.14679684 -0.1597984 0.08529312 -0.078348964 -0.044437855 -0.21231037 -0.006065835 0.016406246 -0.12313418 -0.17957507 -0.0499458 -0.08852577 -0.030878639 0.21094024 0.10215552 -0.0790878 -0.041285057 0.046700653 -0.22566101 -0.05380924 0.14396487
23 -0.062318247 -0.022451358 -0.02283603 -0.07697907 -0.10794759 0.0043982724 0.12384711 0.05587138 -0.022495078 -0.030462772 0.011268945 -0.0987656 -0.12544481 0.020696891 -0.021169566 -0.042274565 -0.1678978 0.01845671 0.041257374 -0.06120055 -0.12503004 -0.054716922 -0.06367896 0.006997846 0.14157575 0.04856483 -0.04542817 -0.0098776035 0.050037306 -0.13497983 -0.021847416 0.10499847
24 -0.07698956 -0.055184897 -0.038572185 -0.074048236 -0.10599129 0.0021499093 0.14149731 0.06739857 -0.034789782 -0.033739902 0.008291282 -0.091613024 -0.110291906 0.05117413 -0.031765677 -0.040671688 -0.15504204 0.010001545 0.016464557 -0.07101074 -0.12105763 -0.018539596 -0.05748938 0.0033828036 0.1517996 0.059262343 -0.036888853 -0.013395536 0.04428148 -0.14935768 -0.026249912 0.08296271
25 -0.0796777 -0.04329998 -0.09100321 -0.07759508 -0.10633052 0.027956577 0.11555261 0.06819963 -0.052457165 -0.024538253 0.013186428 -0.08879437 -0.09404596 0.06322575 -0.04655298 -0.035381064 -0.15197177 -0.012848507 0.005418939 -0.08629975 -0.1100377 -0.029581472 -0.060090385 -0.012821938 0.1160153 0.054578237 -0.06653237 -0.024134323 0.028317386 -0.1425007 -0.039284717 0.08552803
26 -0.08208539 -0.05702585 -0.07455418 -0.086437665 -0.08804164 0.0012696305 0.12310549 0.065239705 -0.034184508 -0.02438958 0.004531778 -0.07826429 -0.080976576 0.043625116 -0.0659766 -0.04452803 -0.14697987 0.0030204863 0.01822713 -0.08533348 -0.10788989 -0.019642044 -0.046597533 -0.0061100153 0.1097955 0.064161025 -0.044374287 -0.0038466007 0.030854827 -0.120133 -0.05040263 0.07374697
27 -0.073306344 -0.035172414 -0.08900694 -0.085711576 -0.08038481 0.024739295 0.12142123 0.06572516 -0.043071635 -0.0119066145 0.021930736 -0.081876114 -0.06805378 0.063351445 -0.059749246 -0.033381343 -0.12662154 -0.03014771 -0.012504113 -0.074702896 -0.119789995 -0.02318342 -0.045570254 -0.021956619 0.12164281 0.045350205 -0.04482114 -0.021587804 0.023226138 -0.13025978 -0.03799096 0.07465794
28 -0.118378855 -0.08410571 -0.102510594 -0.12598759 -0.13251492 0.0017025616 0.17283936 0.122069806 -0.06794399 -0.0390154 0.04043391 -0.132838 -0.13676615 0.07112017 -0.07970911 -0.047572616 -0.17701833 -0.012353582 -0.005465339 -0.09072868 -0.16805734 -0.041445866 -0.10644064 -0.035242 0.17412615 0.08894238 -0.07220273 -0.0330319 0.043372937 -0.17773804 -0.06565294 0.13432626
29 -0.06483902 -0.042922806 -0.036560953 -0.09668815 -0.10912905 0.011122974 0.13115144 0.07571811 -0.032508753 -0.038447343 0.022558913 -0.11191258 -0.13057917 0.034367293 -0.021753237 -0.017336829 -0.14863187 0.01727219 0.0133999465 -0.07704342 -0.11737683 -0.052763354 -0.0486338 -1.9904017e-05 0.13449065 0.051809404 -0.030073779 -0.0076820957 0.03647879 -0.14640826 -0.04193488 0.09385671
